// Neural Network File Format by Kyle Julian, Stanford 2016
2,561,6,561,
561,500,6,
0,
-inf,-inf,-inf,-inf,-inf,-inf,-inf,-inf,-inf,-inf,-inf,-inf,-inf,-inf,-inf,-inf,-inf,-inf,-inf,-inf,-inf,-inf,-inf,-inf,-inf,-inf,-inf,-inf,-inf,-inf,-inf,-inf,-inf,-inf,-inf,-inf,-inf,-inf,-inf,-inf,-inf,-inf,-inf,-inf,-inf,-inf,-inf,-inf,-inf,-inf,-inf,-inf,-inf,-inf,-inf,-inf,-inf,-inf,-inf,-inf,-inf,-inf,-inf,-inf,-inf,-inf,-inf,-inf,-inf,-inf,-inf,-inf,-inf,-inf,-inf,-inf,-inf,-inf,-inf,-inf,-inf,-inf,-inf,-inf,-inf,-inf,-inf,-inf,-inf,-inf,-inf,-inf,-inf,-inf,-inf,-inf,-inf,-inf,-inf,-inf,-inf,-inf,-inf,-inf,-inf,-inf,-inf,-inf,-inf,-inf,-inf,-inf,-inf,-inf,-inf,-inf,-inf,-inf,-inf,-inf,-inf,-inf,-inf,-inf,-inf,-inf,-inf,-inf,-inf,-inf,-inf,-inf,-inf,-inf,-inf,-inf,-inf,-inf,-inf,-inf,-inf,-inf,-inf,-inf,-inf,-inf,-inf,-inf,-inf,-inf,-inf,-inf,-inf,-inf,-inf,-inf,-inf,-inf,-inf,-inf,-inf,-inf,-inf,-inf,-inf,-inf,-inf,-inf,-inf,-inf,-inf,-inf,-inf,-inf,-inf,-inf,-inf,-inf,-inf,-inf,-inf,-inf,-inf,-inf,-inf,-inf,-inf,-inf,-inf,-inf,-inf,-inf,-inf,-inf,-inf,-inf,-inf,-inf,-inf,-inf,-inf,-inf,-inf,-inf,-inf,-inf,-inf,-inf,-inf,-inf,-inf,-inf,-inf,-inf,-inf,-inf,-inf,-inf,-inf,-inf,-inf,-inf,-inf,-inf,-inf,-inf,-inf,-inf,-inf,-inf,-inf,-inf,-inf,-inf,-inf,-inf,-inf,-inf,-inf,-inf,-inf,-inf,-inf,-inf,-inf,-inf,-inf,-inf,-inf,-inf,-inf,-inf,-inf,-inf,-inf,-inf,-inf,-inf,-inf,-inf,-inf,-inf,-inf,-inf,-inf,-inf,-inf,-inf,-inf,-inf,-inf,-inf,-inf,-inf,-inf,-inf,-inf,-inf,-inf,-inf,-inf,-inf,-inf,-inf,-inf,-inf,-inf,-inf,-inf,-inf,-inf,-inf,-inf,-inf,-inf,-inf,-inf,-inf,-inf,-inf,-inf,-inf,-inf,-inf,-inf,-inf,-inf,-inf,-inf,-inf,-inf,-inf,-inf,-inf,-inf,-inf,-inf,-inf,-inf,-inf,-inf,-inf,-inf,-inf,-inf,-inf,-inf,-inf,-inf,-inf,-inf,-inf,-inf,-inf,-inf,-inf,-inf,-inf,-inf,-inf,-inf,-inf,-inf,-inf,-inf,-inf,-inf,-inf,-inf,-inf,-inf,-inf,-inf,-inf,-inf,-inf,-inf,-inf,-inf,-inf,-inf,-inf,-inf,-inf,-inf,-inf,-inf,-inf,-inf,-inf,-inf,-inf,-inf,-inf,-inf,-inf,-inf,-inf,-inf,-inf,-inf,-inf,-inf,-inf,-inf,-inf,-inf,-inf,-inf,-inf,-inf,-inf,-inf,-inf,-inf,-inf,-inf,-inf,-inf,-inf,-inf,-inf,-inf,-inf,-inf,-inf,-inf,-inf,-inf,-inf,-inf,-inf,-inf,-inf,-inf,-inf,-inf,-inf,-inf,-inf,-inf,-inf,-inf,-inf,-inf,-inf,-inf,-inf,-inf,-inf,-inf,-inf,-inf,-inf,-inf,-inf,-inf,-inf,-inf,-inf,-inf,-inf,-inf,-inf,-inf,-inf,-inf,-inf,-inf,-inf,-inf,-inf,-inf,-inf,-inf,-inf,-inf,-inf,-inf,-inf,-inf,-inf,-inf,-inf,-inf,-inf,-inf,-inf,-inf,-inf,-inf,-inf,-inf,-inf,-inf,-inf,-inf,-inf,-inf,-inf,-inf,-inf,-inf,-inf,-inf,-inf,-inf,-inf,-inf,-inf,-inf,-inf,-inf,-inf,-inf,-inf,-inf,-inf,-inf,-inf,-inf,-inf,-inf,-inf,-inf,-inf,-inf,-inf,-inf,-inf,-inf,-inf,-inf,-inf,-inf,-inf,-inf,-inf,-inf,-inf,-inf,-inf,-inf,-inf,-inf,-inf,-inf,-inf,-inf,-inf,-inf,-inf,-inf,-inf,-inf,-inf,-inf,-inf,-inf,-inf,-inf,-inf,-inf,-inf,-inf,-inf,-inf,-inf,-inf,-inf,-inf,-inf,-inf,-inf,-inf,-inf,-inf,-inf,-inf,-inf,-inf,
inf,inf,inf,inf,inf,inf,inf,inf,inf,inf,inf,inf,inf,inf,inf,inf,inf,inf,inf,inf,inf,inf,inf,inf,inf,inf,inf,inf,inf,inf,inf,inf,inf,inf,inf,inf,inf,inf,inf,inf,inf,inf,inf,inf,inf,inf,inf,inf,inf,inf,inf,inf,inf,inf,inf,inf,inf,inf,inf,inf,inf,inf,inf,inf,inf,inf,inf,inf,inf,inf,inf,inf,inf,inf,inf,inf,inf,inf,inf,inf,inf,inf,inf,inf,inf,inf,inf,inf,inf,inf,inf,inf,inf,inf,inf,inf,inf,inf,inf,inf,inf,inf,inf,inf,inf,inf,inf,inf,inf,inf,inf,inf,inf,inf,inf,inf,inf,inf,inf,inf,inf,inf,inf,inf,inf,inf,inf,inf,inf,inf,inf,inf,inf,inf,inf,inf,inf,inf,inf,inf,inf,inf,inf,inf,inf,inf,inf,inf,inf,inf,inf,inf,inf,inf,inf,inf,inf,inf,inf,inf,inf,inf,inf,inf,inf,inf,inf,inf,inf,inf,inf,inf,inf,inf,inf,inf,inf,inf,inf,inf,inf,inf,inf,inf,inf,inf,inf,inf,inf,inf,inf,inf,inf,inf,inf,inf,inf,inf,inf,inf,inf,inf,inf,inf,inf,inf,inf,inf,inf,inf,inf,inf,inf,inf,inf,inf,inf,inf,inf,inf,inf,inf,inf,inf,inf,inf,inf,inf,inf,inf,inf,inf,inf,inf,inf,inf,inf,inf,inf,inf,inf,inf,inf,inf,inf,inf,inf,inf,inf,inf,inf,inf,inf,inf,inf,inf,inf,inf,inf,inf,inf,inf,inf,inf,inf,inf,inf,inf,inf,inf,inf,inf,inf,inf,inf,inf,inf,inf,inf,inf,inf,inf,inf,inf,inf,inf,inf,inf,inf,inf,inf,inf,inf,inf,inf,inf,inf,inf,inf,inf,inf,inf,inf,inf,inf,inf,inf,inf,inf,inf,inf,inf,inf,inf,inf,inf,inf,inf,inf,inf,inf,inf,inf,inf,inf,inf,inf,inf,inf,inf,inf,inf,inf,inf,inf,inf,inf,inf,inf,inf,inf,inf,inf,inf,inf,inf,inf,inf,inf,inf,inf,inf,inf,inf,inf,inf,inf,inf,inf,inf,inf,inf,inf,inf,inf,inf,inf,inf,inf,inf,inf,inf,inf,inf,inf,inf,inf,inf,inf,inf,inf,inf,inf,inf,inf,inf,inf,inf,inf,inf,inf,inf,inf,inf,inf,inf,inf,inf,inf,inf,inf,inf,inf,inf,inf,inf,inf,inf,inf,inf,inf,inf,inf,inf,inf,inf,inf,inf,inf,inf,inf,inf,inf,inf,inf,inf,inf,inf,inf,inf,inf,inf,inf,inf,inf,inf,inf,inf,inf,inf,inf,inf,inf,inf,inf,inf,inf,inf,inf,inf,inf,inf,inf,inf,inf,inf,inf,inf,inf,inf,inf,inf,inf,inf,inf,inf,inf,inf,inf,inf,inf,inf,inf,inf,inf,inf,inf,inf,inf,inf,inf,inf,inf,inf,inf,inf,inf,inf,inf,inf,inf,inf,inf,inf,inf,inf,inf,inf,inf,inf,inf,inf,inf,inf,inf,inf,inf,inf,inf,inf,inf,inf,inf,inf,inf,inf,inf,inf,inf,inf,inf,inf,inf,inf,inf,inf,inf,inf,inf,inf,inf,inf,inf,inf,inf,inf,inf,inf,inf,inf,inf,inf,inf,inf,inf,inf,inf,inf,inf,inf,inf,inf,inf,inf,inf,inf,inf,inf,inf,inf,inf,
0,0,0,0,0,0,0,0,0,0,0,0,0,0,0,0,0,0,0,0,0,0,0,0,0,0,0,0,0,0,0,0,0,0,0,0,0,0,0,0,0,0,0,0,0,0,0,0,0,0,0,0,0,0,0,0,0,0,0,0,0,0,0,0,0,0,0,0,0,0,0,0,0,0,0,0,0,0,0,0,0,0,0,0,0,0,0,0,0,0,0,0,0,0,0,0,0,0,0,0,0,0,0,0,0,0,0,0,0,0,0,0,0,0,0,0,0,0,0,0,0,0,0,0,0,0,0,0,0,0,0,0,0,0,0,0,0,0,0,0,0,0,0,0,0,0,0,0,0,0,0,0,0,0,0,0,0,0,0,0,0,0,0,0,0,0,0,0,0,0,0,0,0,0,0,0,0,0,0,0,0,0,0,0,0,0,0,0,0,0,0,0,0,0,0,0,0,0,0,0,0,0,0,0,0,0,0,0,0,0,0,0,0,0,0,0,0,0,0,0,0,0,0,0,0,0,0,0,0,0,0,0,0,0,0,0,0,0,0,0,0,0,0,0,0,0,0,0,0,0,0,0,0,0,0,0,0,0,0,0,0,0,0,0,0,0,0,0,0,0,0,0,0,0,0,0,0,0,0,0,0,0,0,0,0,0,0,0,0,0,0,0,0,0,0,0,0,0,0,0,0,0,0,0,0,0,0,0,0,0,0,0,0,0,0,0,0,0,0,0,0,0,0,0,0,0,0,0,0,0,0,0,0,0,0,0,0,0,0,0,0,0,0,0,0,0,0,0,0,0,0,0,0,0,0,0,0,0,0,0,0,0,0,0,0,0,0,0,0,0,0,0,0,0,0,0,0,0,0,0,0,0,0,0,0,0,0,0,0,0,0,0,0,0,0,0,0,0,0,0,0,0,0,0,0,0,0,0,0,0,0,0,0,0,0,0,0,0,0,0,0,0,0,0,0,0,0,0,0,0,0,0,0,0,0,0,0,0,0,0,0,0,0,0,0,0,0,0,0,0,0,0,0,0,0,0,0,0,0,0,0,0,0,0,0,0,0,0,0,0,0,0,0,0,0,0,0,0,0,0,0,0,0,0,0,0,0,0,0,0,0,0,0,0,0,0,0,0,0,0,0,0,0,0,0,0,0,0,0,0,0,0,0,0,0,0,0,0,0,0,0,0,0,0,0,0,0,0,0,0,0,0,0,0,0,0,0,0,0,0,0,0,0,0,0,0,0,0,0,0,0,0,0,0,0,0,0,0,0,0,0,0,
1,1,1,1,1,1,1,1,1,1,1,1,1,1,1,1,1,1,1,1,1,1,1,1,1,1,1,1,1,1,1,1,1,1,1,1,1,1,1,1,1,1,1,1,1,1,1,1,1,1,1,1,1,1,1,1,1,1,1,1,1,1,1,1,1,1,1,1,1,1,1,1,1,1,1,1,1,1,1,1,1,1,1,1,1,1,1,1,1,1,1,1,1,1,1,1,1,1,1,1,1,1,1,1,1,1,1,1,1,1,1,1,1,1,1,1,1,1,1,1,1,1,1,1,1,1,1,1,1,1,1,1,1,1,1,1,1,1,1,1,1,1,1,1,1,1,1,1,1,1,1,1,1,1,1,1,1,1,1,1,1,1,1,1,1,1,1,1,1,1,1,1,1,1,1,1,1,1,1,1,1,1,1,1,1,1,1,1,1,1,1,1,1,1,1,1,1,1,1,1,1,1,1,1,1,1,1,1,1,1,1,1,1,1,1,1,1,1,1,1,1,1,1,1,1,1,1,1,1,1,1,1,1,1,1,1,1,1,1,1,1,1,1,1,1,1,1,1,1,1,1,1,1,1,1,1,1,1,1,1,1,1,1,1,1,1,1,1,1,1,1,1,1,1,1,1,1,1,1,1,1,1,1,1,1,1,1,1,1,1,1,1,1,1,1,1,1,1,1,1,1,1,1,1,1,1,1,1,1,1,1,1,1,1,1,1,1,1,1,1,1,1,1,1,1,1,1,1,1,1,1,1,1,1,1,1,1,1,1,1,1,1,1,1,1,1,1,1,1,1,1,1,1,1,1,1,1,1,1,1,1,1,1,1,1,1,1,1,1,1,1,1,1,1,1,1,1,1,1,1,1,1,1,1,1,1,1,1,1,1,1,1,1,1,1,1,1,1,1,1,1,1,1,1,1,1,1,1,1,1,1,1,1,1,1,1,1,1,1,1,1,1,1,1,1,1,1,1,1,1,1,1,1,1,1,1,1,1,1,1,1,1,1,1,1,1,1,1,1,1,1,1,1,1,1,1,1,1,1,1,1,1,1,1,1,1,1,1,1,1,1,1,1,1,1,1,1,1,1,1,1,1,1,1,1,1,1,1,1,1,1,1,1,1,1,1,1,1,1,1,1,1,1,1,1,1,1,1,1,1,1,1,1,1,1,1,1,1,1,1,1,1,1,1,1,1,1,1,1,1,1,1,1,1,1,1,1,1,1,1,1,1,1,1,1,1,1,1,1,1,1,1,1,1,1,1,1,1,1,1,1,1,
1.06854e-02,-7.59419e-05,-2.04471e-02,-3.70427e-02,1.67920e-02,1.79410e-02,1.41898e-02,5.60394e-02,4.49489e-03,1.20027e-01,-3.33751e-03,-8.56717e-03,-3.91197e-02,-5.61001e-02,-1.62345e-02,2.75759e-02,7.28323e-03,1.30749e-02,-2.95072e-02,-6.43505e-03,2.25978e-02,4.64015e-02,-6.68033e-02,5.03779e-02,9.46951e-03,-2.88595e-02,4.75718e-02,-3.11493e-02,6.61903e-02,-3.80373e-03,-4.44743e-03,2.76305e-02,-8.34191e-03,-3.33129e-02,-7.82855e-03,-2.92642e-02,-4.15845e-03,4.67139e-02,2.38593e-02,-9.39334e-02,4.48391e-02,-7.35737e-02,-7.08153e-03,-6.30407e-02,-5.13289e-02,-4.46789e-02,-1.38091e-03,-3.73007e-05,-3.79099e-02,3.69558e-02,-4.56921e-02,1.86936e-02,5.74723e-02,-4.26779e-02,8.82177e-03,-2.22845e-01,5.28250e-02,-6.70079e-02,-6.29287e-02,-4.33156e-02,-4.89228e-03,-1.06914e-02,-2.55838e-01,-3.71100e-02,-2.96269e-03,-6.01501e-03,2.06621e-02,-1.38484e-02,4.61061e-02,1.36780e-01,-1.53234e-01,8.42143e-02,-3.89755e-02,1.21518e-01,-1.94274e-02,5.56669e-02,1.19252e-02,-1.56349e-02,-5.26746e-02,-3.81275e-02,-2.79888e-02,2.12864e-02,1.68262e-02,-2.87748e-02,2.39259e-02,-1.29354e-02,2.58359e-03,1.46125e-02,7.44530e-03,1.86239e-01,9.13248e-03,1.59137e-02,1.39543e-01,4.85118e-03,-3.84608e-02,-5.74070e-03,9.20094e-03,3.90607e-03,-3.32913e-02,-4.59762e-03,2.86132e-02,2.01757e-02,1.68801e-02,4.66225e-02,2.69320e-02,-3.23594e-02,-1.55563e-02,-2.76137e-02,1.41292e-03,-1.58209e-03,-3.45800e-03,9.00617e-03,-1.15952e-02,7.95939e-03,1.98459e-02,-3.23856e-02,-1.37070e-02,4.81006e-02,1.07884e-01,-5.44540e-02,-2.43865e-05,9.51633e-05,-5.39732e-03,2.47980e-02,-2.58991e-02,-1.17275e-02,5.26821e-03,-2.94950e-03,-1.28789e-04,-2.97995e-02,-5.18065e-03,7.49217e-03,-2.31744e-02,1.11938e-03,2.36363e-02,2.10420e-02,8.99125e-04,-6.71799e-04,3.78679e-03,4.28724e-02,5.46508e-02,1.93498e-02,6.51055e-02,7.20546e-03,5.47313e-03,-3.93346e-02,3.86826e-02,-6.86971e-05,-3.52623e-02,-2.57291e-02,-2.01849e-02,-2.57717e-02,6.42843e-03,-6.05710e-03,4.53026e-02,-4.19779e-02,6.21159e-02,-6.48001e-02,-2.03517e-03,-2.92481e-01,9.70162e-04,-2.17343e-04,-2.39249e-02,-4.98428e-02,-7.38523e-03,4.41956e-04,-5.70291e-02,1.21128e-02,-3.02605e-02,-1.00362e-03,3.05072e-02,-1.81488e-02,3.38438e-02,1.73543e-02,-3.05425e-02,2.08798e-02,-3.37387e-03,-2.12201e-02,2.54884e-02,-8.22858e-02,2.67705e-04,-2.19055e-03,8.00716e-02,5.22038e-02,6.55589e-02,-2.18275e-02,2.50001e-03,-1.33025e-03,-1.52849e-02,3.03304e-03,2.54288e-02,1.24457e-02,-1.20781e-02,-1.96790e-02,-6.66180e-05,-1.59810e-02,-1.61041e-02,6.33309e-03,1.73813e-01,3.14063e-03,2.83213e-02,7.78647e-02,-4.07875e-02,-2.14382e-02,-2.21401e-02,5.08915e-02,-1.44930e-02,1.49553e-02,5.29044e-02,2.01231e-02,6.44219e-03,1.34894e-03,-1.47521e-03,1.61658e-02,4.84136e-02,-7.98161e-03,-3.19333e-02,-2.05575e-02,5.36618e-02,-3.51432e-02,-1.83972e-02,7.99779e-02,2.33586e-02,9.08885e-03,-1.92746e-02,2.51170e-03,-9.59011e-03,-7.81658e-03,-6.80789e-03,3.80563e-03,-4.16632e-03,5.22281e-02,2.64057e-04,2.89943e-02,7.57462e-02,-2.87685e-02,3.68012e-02,-2.01790e-02,-4.09060e-03,4.10551e-02,1.33826e-02,3.37145e-02,-1.12541e-02,2.09563e-04,5.05470e-02,-3.64293e-02,3.34880e-02,-4.54646e-03,-2.04015e-02,2.96432e-03,-6.49596e-03,2.55920e-04,2.50493e-02,-1.19306e-02,-2.05877e-02,-1.42504e-02,-3.76013e-02,1.54186e-02,-2.14010e-02,-2.92052e-02,1.64416e-02,1.11914e-02,9.89201e-03,1.66144e-02,1.75145e-03,8.20846e-04,1.98524e-02,1.17880e-02,-3.76782e-03,1.01654e-02,-9.70875e-04,7.44474e-03,4.90656e-03,1.93325e-02,-6.16171e-02,-1.14717e-01,4.52073e-02,-2.84164e-02,-9.36034e-03,-8.89927e-05,1.95438e-02,-2.97327e-02,-3.34628e-02,2.72385e-02,7.69430e-03,4.32411e-02,-1.58943e-02,6.71457e-02,2.76262e-02,3.42472e-02,-3.62284e-02,5.22409e-03,4.15062e-03,-3.16079e-02,-2.08454e-02,2.25481e-01,4.14364e-02,-7.41706e-02,-5.97516e-02,-6.44566e-02,-9.92543e-02,-4.08966e-02,1.27122e-03,9.75546e-03,-1.47660e-04,-2.95175e-02,1.00851e-03,1.45074e-02,9.90065e-03,-1.10610e-02,-3.19849e-02,-7.04704e-03,5.28409e-03,-1.44454e-02,9.63475e-03,2.35306e-02,-9.87311e-02,-3.85352e-04,8.51650e-03,-2.10190e-04,-3.79252e-04,2.77511e-03,-3.21463e-02,-6.17285e-03,2.96579e-02,2.76006e-02,2.09155e-02,-3.79681e-03,1.43732e-02,-1.99470e-02,-3.09583e-02,-3.60006e-02,3.54613e-02,1.32417e-02,-3.31193e-02,7.69604e-03,2.14498e-02,2.65903e-02,3.13846e-02,2.25324e-02,-1.21726e-02,-1.79634e-02,2.77601e-02,1.30270e-02,-1.78739e-02,5.18029e-02,5.55392e-03,3.21162e-02,2.99165e-02,4.39543e-03,2.85278e-03,4.43119e-02,-1.04840e-02,1.50138e-02,8.03165e-02,1.57090e-02,-1.35740e-02,1.19746e-02,-2.99811e-02,2.47154e-02,-3.38123e-02,-4.00983e-02,-3.36980e-02,3.83657e-02,2.30599e-02,3.32812e-02,9.43162e-02,1.16617e-02,3.53883e-02,-2.81745e-02,-2.74717e-02,7.25590e-02,-7.42012e-02,-3.25611e-02,-4.71828e-02,-4.21048e-03,2.76990e-02,2.71585e-02,1.62460e-02,2.02481e-02,2.50671e-02,1.94002e-03,1.07453e-02,3.12630e-02,8.81689e-03,3.40302e-02,1.39112e-02,1.74121e-02,-1.81841e-02,9.67361e-03,1.71217e-04,-9.86804e-03,-2.57026e-02,-2.32809e-02,-3.24075e-02,1.85388e-02,2.51713e-02,-7.48060e-03,-2.08729e-02,2.64548e-02,2.28096e-02,-1.56442e-03,-2.50239e-02,3.58139e-02,1.00278e-02,-3.00622e-02,2.99105e-02,2.22014e-02,-1.77565e-02,1.68848e-02,-2.34169e-02,-8.17550e-03,2.56769e-02,-7.40341e-03,-3.19596e-02,-1.72335e-02,-1.22790e-02,-6.39620e-03,-1.02035e-03,3.05663e-02,-3.26093e-03,-2.82224e-02,-5.86023e-03,2.91030e-02,1.92249e-02,-2.30850e-02,-8.45942e-04,3.40437e-04,-8.63985e-03,2.34620e-02,-2.12130e-02,2.48358e-02,4.55463e-02,-3.59327e-02,-2.19761e-02,-2.01780e-02,3.69078e-03,-3.24676e-02,2.98989e-02,-3.86566e-02,-3.84113e-02,-3.72489e-02,-4.21400e-03,1.79623e-02,-3.77950e-02,7.28599e-02,1.90776e-02,4.84279e-02,-1.25326e-02,-3.25384e-02,7.07713e-02,-5.13823e-02,1.47008e-02,1.68369e-03,-7.07426e-03,2.78489e-02,-1.72165e-02,-2.16925e-02,-1.51430e-01,-1.71996e-01,-4.13293e-02,-1.37540e-02,1.62551e-03,-3.91891e-02,2.62276e-03,1.10511e-02,-2.08136e-03,-3.24158e-02,-3.43427e-02,-1.31757e-02,1.16543e-02,2.96913e-02,2.09194e-02,-8.65217e-03,9.90683e-03,-4.27829e-02,-3.54737e-02,5.88729e-03,-3.21881e-02,1.15090e-02,-3.38765e-02,-2.61560e-02,-3.25657e-02,1.14060e-02,-9.26862e-03,2.08042e-02,1.90421e-02,1.14203e-02,-3.24468e-04,-1.71458e-02,-1.03837e-02,-3.87311e-03,1.30745e-02,-3.46436e-02,2.16044e-02,-8.49705e-03,-3.05901e-02,-2.37211e-02,2.41820e-02,2.63597e-02,-4.22816e-02,1.83079e-02,1.51452e-01,-2.02176e-02,1.83561e-01,-4.74318e-02,-6.77492e-03,1.43026e-01,2.82279e-02,6.24850e-02,2.62162e-02,1.91668e-02,7.32345e-03,-7.31607e-02,-3.48092e-02,2.04519e-02,-1.61945e-02,3.39814e-03,2.55481e-02,-2.87047e-03,1.69806e-02,-1.30544e-02,1.71708e-02,1.44799e-02,-2.44575e-02,-2.49944e-03,2.82360e-01,7.62673e-02,3.51157e-04,-1.80932e-02,4.07523e-02,3.13672e-02,-3.30872e-02,-3.27348e-02,-3.15656e-02,-2.25378e-03,2.10274e-02,-3.12649e-02,1.61843e-02,-3.50352e-04,-3.59848e-02,6.57846e-04,-9.38808e-03,-2.81086e-02,-5.16464e-04,3.03451e-02,-2.85247e-02,-7.68639e-03,-1.18883e-02,6.69464e-02,-4.34579e-02,-5.59992e-04,-4.22314e-02,-9.79374e-02,1.05799e-04,-5.56637e-04,1.79999e-02,-8.26041e-03,-1.37819e-02,4.95931e-02,-2.16692e-02,
-8.75173e-03,4.01206e-06,5.91599e-03,4.59777e-02,9.76549e-02,6.41029e-04,7.32636e-02,8.09126e-02,2.70665e-02,1.29288e-01,4.16194e-04,-7.16530e-03,-2.24519e-02,-4.19511e-02,3.82622e-02,4.35165e-02,-3.42577e-02,9.20251e-03,3.50327e-02,1.32931e-02,-2.78181e-02,-1.72428e-02,1.69872e-01,3.43955e-02,-1.82977e-02,-7.99117e-02,-7.98801e-03,2.04598e-02,-8.85800e-03,-1.12696e-03,-2.56679e-02,-6.93278e-04,1.28381e-02,-1.60334e-02,1.17928e-02,-4.01686e-03,1.66794e-02,1.14748e-01,1.79109e-02,-5.66218e-02,9.30110e-02,-2.14612e-01,3.20709e-02,-6.21303e-02,-6.37349e-02,-4.31596e-02,-6.28049e-02,-6.48098e-02,-5.97626e-02,8.91259e-02,-2.51680e-01,3.64539e-02,8.17028e-02,-1.21953e-01,1.82337e-02,1.68709e-01,1.28532e-01,-2.97467e-02,-5.59716e-02,-6.22348e-02,-1.52535e-02,-5.26034e-02,-2.05618e-01,-1.52144e-01,-3.82533e-02,-3.99933e-02,8.53807e-02,-1.19456e-01,7.92205e-02,8.88616e-02,-2.10264e-02,-2.83080e-02,3.08709e-02,6.92840e-03,-3.59543e-04,-1.75494e-02,-7.75034e-03,1.34311e-02,-3.56030e-02,-1.08090e-01,-1.93956e-04,1.61051e-04,-1.48390e-03,4.28699e-03,5.47649e-02,-3.35969e-02,6.19824e-02,5.26638e-03,-1.75139e-02,-4.65580e-02,-1.79347e-02,2.43662e-02,-1.41266e-01,-3.30029e-02,-8.69990e-03,2.59450e-02,2.48700e-02,-1.83509e-02,1.27994e-02,1.74374e-02,2.69481e-02,1.56113e-02,1.60624e-01,1.39532e-01,2.04390e-01,-9.09008e-02,-8.20207e-03,-1.43432e-02,1.91301e-02,-2.57307e-02,-1.78846e-04,-7.79490e-03,9.55893e-03,-2.17879e-02,-2.35946e-03,-2.13806e-03,2.69053e-03,1.55812e-01,9.48006e-02,2.23428e-02,-2.65564e-04,7.79228e-04,-1.95512e-04,1.91918e-02,3.77553e-02,-1.60986e-02,-5.74518e-03,4.14502e-02,2.39525e-03,1.86284e-04,-1.65798e-02,2.29678e-03,3.52978e-02,-5.82443e-05,-7.82141e-03,8.15948e-02,-2.78102e-02,1.00466e-03,6.77956e-03,2.14293e-02,5.52428e-02,-3.73328e-02,6.82161e-02,-2.48953e-02,9.66519e-02,-9.50999e-02,1.16716e-01,-4.71371e-03,-5.74982e-02,-1.05546e-04,-5.31470e-04,-1.86020e-02,-6.94098e-04,-1.40933e-02,2.86161e-02,2.42085e-02,3.41385e-03,-9.88311e-02,-9.93432e-02,3.33257e-01,-4.74424e-03,1.92504e-04,-2.65368e-05,-2.93822e-02,1.42251e-03,1.98082e-02,-1.03605e-02,1.86173e-02,-2.61913e-02,-4.96596e-03,2.33652e-02,-9.71862e-03,3.22820e-03,-1.82654e-02,3.47775e-02,-7.93366e-03,-2.19857e-02,4.83815e-03,-1.98810e-02,1.15123e-02,-2.03693e-04,2.38835e-02,1.01130e-01,9.84509e-02,1.43399e-01,-7.06930e-02,3.21703e-02,-1.10624e-02,-2.10664e-04,-2.93952e-02,-5.70710e-03,4.38986e-03,3.19731e-02,-4.42460e-02,3.25480e-02,-8.69524e-03,1.08000e-02,-6.58038e-03,1.31034e-01,-1.79220e-02,8.41773e-02,-9.28489e-02,5.19920e-02,6.73414e-02,-1.50410e-02,4.66363e-02,3.28194e-02,-5.17208e-02,5.97641e-02,-7.58455e-03,2.25762e-02,-3.50158e-04,1.82815e-02,8.38489e-02,-8.18160e-02,5.10046e-02,3.62357e-02,4.45360e-02,2.32013e-02,-2.77636e-02,-5.53853e-03,7.84938e-02,-8.57843e-03,3.94754e-02,-6.39962e-03,1.00585e-02,-1.01283e-02,1.45965e-02,1.72741e-02,6.37212e-03,-3.74354e-03,5.90506e-02,-5.43970e-04,-8.58610e-03,1.12256e-01,-1.62136e-02,2.79748e-02,-4.81590e-04,3.32067e-04,6.92830e-02,-2.51579e-02,6.08701e-03,-3.26983e-02,-1.35241e-04,8.99067e-02,3.41677e-02,-4.53576e-02,8.09683e-02,-2.79750e-02,1.58494e-02,-2.02720e-03,6.67772e-04,-2.86908e-02,1.29710e-03,1.11478e-02,-1.32828e-02,2.59941e-02,-5.50985e-03,1.41357e-02,3.36454e-02,6.56251e-02,2.87213e-04,-2.67660e-04,1.42026e-03,3.86302e-04,6.44787e-02,2.94554e-02,1.33148e-02,6.59777e-02,9.43816e-02,-3.17384e-04,1.11507e-01,6.11134e-02,-3.30982e-03,6.96212e-02,4.25185e-02,-1.83496e-02,3.16731e-05,4.52412e-03,-1.32693e-03,9.26643e-02,8.46993e-03,1.96505e-06,1.26404e-02,1.24158e-02,2.92007e-02,1.26611e-02,1.58765e-01,1.13600e-01,1.04799e-01,-1.05519e-03,-1.51943e-02,-1.40167e-02,-1.20354e-01,-4.44838e-02,2.13666e-02,1.26660e-01,2.52217e-02,-1.02957e-01,-5.31516e-02,4.64977e-02,-3.29399e-02,-4.96444e-02,3.33395e-02,-1.49027e-02,1.77975e-03,-9.79905e-03,-3.39290e-04,5.10956e-03,-2.37988e-05,-1.00857e-02,-4.05841e-02,7.81020e-04,9.72582e-04,8.72400e-03,2.46985e-02,3.72360e-02,-2.19524e-02,-4.65432e-03,-1.37752e-02,-3.26321e-02,-2.55786e-02,2.71984e-02,6.93138e-03,4.51636e-03,1.10888e-02,-3.38430e-02,1.50714e-04,2.63101e-02,-1.89939e-02,2.36937e-02,1.26785e-02,2.90482e-02,-1.61284e-02,1.01623e-02,-2.87480e-02,9.75018e-04,6.11257e-03,3.64557e-04,3.08877e-02,3.35937e-02,3.04943e-02,1.99592e-02,2.12283e-02,1.72244e-02,-2.49281e-03,-2.40410e-02,1.25129e-02,6.73579e-02,6.45357e-03,5.05970e-02,2.04123e-02,-4.74213e-03,4.13901e-02,1.34178e-01,-3.43121e-02,-3.14801e-02,8.68668e-03,-2.47899e-03,4.47953e-02,-4.44516e-02,-4.04654e-02,2.30234e-02,5.34013e-02,-4.03509e-02,6.51913e-03,1.33127e-01,1.58479e-01,1.33227e-01,-9.61553e-02,-4.77776e-02,-9.98453e-02,-8.99674e-02,-1.35201e-03,-1.68525e-02,5.02606e-02,-3.55490e-02,1.16196e-02,-3.12201e-02,7.53501e-04,-2.81589e-02,-1.73941e-02,-2.43006e-03,-2.00427e-02,-2.15678e-03,-3.03439e-02,-3.31372e-02,9.42595e-03,-1.74472e-02,-1.88702e-02,-1.70878e-02,-3.29651e-02,-2.66043e-02,1.04489e-02,2.09551e-02,-2.54797e-03,-2.46572e-02,1.55544e-03,-2.07680e-03,-2.21836e-02,-1.84104e-04,3.11221e-02,-4.07248e-02,-4.05776e-02,-2.92351e-03,2.11373e-02,-1.95599e-02,-3.89963e-04,1.75243e-02,2.88207e-03,4.36247e-03,3.40844e-02,1.80069e-02,-2.23195e-02,4.89287e-03,1.64246e-02,2.76658e-02,-4.00652e-02,1.10372e-02,-1.09738e-02,-3.59989e-02,5.02582e-03,-2.15766e-02,3.12123e-03,-3.21294e-02,-2.87983e-02,-1.48732e-03,3.48811e-02,3.76596e-03,9.65614e-03,1.97800e-02,1.57354e-03,2.52302e-03,7.65191e-02,-1.84991e-03,5.97114e-03,-7.93748e-03,5.52672e-03,-6.48238e-03,-2.18262e-03,-2.85978e-02,2.00696e-04,-5.26750e-02,-9.92000e-03,1.37035e-02,2.64194e-02,3.99340e-02,5.24276e-02,-4.41475e-02,7.23835e-04,4.58531e-02,-8.64829e-02,-2.76972e-02,-6.30864e-03,5.31387e-02,3.12344e-02,1.14203e-01,5.99840e-02,2.80249e-02,-2.53321e-02,-2.32445e-02,-2.05496e-02,1.42365e-02,-2.90267e-03,-3.90763e-02,-2.23098e-02,9.44881e-03,-1.14396e-02,2.03286e-02,2.76353e-02,1.60811e-03,-5.73281e-04,-7.24902e-03,-2.07300e-03,-1.49466e-03,-2.99780e-02,-8.62592e-03,-3.55327e-02,1.38731e-02,-2.34967e-02,3.04358e-02,-8.53774e-03,-2.00280e-02,1.10139e-02,1.79181e-03,2.12508e-02,8.01652e-03,-4.06054e-02,2.58510e-02,-2.22078e-03,-1.13825e-02,1.45429e-02,1.89769e-02,-3.62774e-02,-4.28583e-03,2.58063e-02,1.68978e-02,1.94956e-02,-1.47183e-02,-1.98235e-02,2.41290e-02,5.92456e-03,2.69853e-03,-5.88800e-02,-6.86566e-02,-2.68595e-02,-7.05359e-02,-1.69280e-02,-2.29915e-02,2.66133e-03,9.18873e-02,1.42686e-02,-7.80472e-02,-1.36824e-01,-1.73040e-01,-1.03411e-02,8.76626e-06,4.86158e-02,5.33889e-03,6.67374e-03,-6.88280e-04,4.16089e-03,-3.94794e-04,1.18397e-01,2.55155e-02,-9.75255e-03,5.58359e-02,2.23332e-02,-1.68974e-02,-1.51873e-02,3.20919e-03,-1.66636e-02,2.05980e-02,-2.57729e-02,-1.68710e-03,-9.74329e-03,1.13311e-02,-5.32261e-03,-2.00279e-02,4.10727e-03,-2.88856e-02,2.26777e-02,2.19838e-02,-2.94862e-02,1.33055e-02,-2.63059e-02,-3.44889e-02,5.51235e-03,-1.42483e-05,2.21026e-02,-3.26192e-02,2.95654e-02,-8.44703e-02,-7.35543e-02,-6.60595e-03,-3.10977e-03,-2.07114e-02,-1.10813e-02,-1.11005e-01,8.19053e-02,-2.38814e-02,
-2.36584e-02,2.77529e-03,-3.97991e-02,-4.33344e-02,-1.65975e-02,-1.76020e-02,1.04908e-02,-1.62700e-02,-1.87414e-02,-8.92756e-02,2.51764e-03,3.69188e-02,-1.04948e-02,-2.77347e-02,-9.76369e-05,3.51529e-03,1.21541e-02,-3.64578e-02,-1.18212e-03,2.26688e-02,-1.74963e-02,-2.34920e-02,1.46143e-01,-1.98059e-02,-2.04596e-03,-5.92704e-02,1.81826e-02,-3.20748e-02,-4.96148e-02,-4.09608e-02,-2.76888e-02,1.41315e-03,2.72801e-02,-4.82276e-02,-4.88460e-03,3.22484e-02,-3.75946e-03,2.32311e-01,-5.52777e-02,8.03916e-02,4.70112e-02,1.83765e-01,1.16601e-02,-3.51596e-02,-6.23467e-04,-6.60171e-03,-2.75722e-02,-3.71306e-02,-2.83976e-02,9.05370e-02,1.38446e-01,-3.10914e-02,4.46789e-02,1.35791e-01,1.72741e-02,1.49015e-01,7.68261e-02,-6.48829e-02,-2.93576e-02,-2.71650e-02,2.38809e-02,-4.90899e-02,-1.72750e-01,-1.94745e-02,-1.60588e-02,5.43144e-02,4.29399e-02,-4.79046e-02,9.98585e-03,1.33183e-01,-4.80979e-02,3.10389e-02,5.45128e-03,-2.99042e-02,3.09185e-02,-2.13348e-02,1.78190e-02,-3.45883e-02,3.81856e-02,2.25027e-02,3.19644e-02,-3.30841e-02,-2.27856e-02,-1.06656e-02,-1.89087e-02,3.81714e-02,3.59269e-04,-6.71172e-03,-1.46919e-02,-1.85159e-01,1.75598e-02,-4.09693e-02,-1.30841e-01,-3.79893e-02,2.39020e-02,2.69875e-02,-3.36181e-02,5.49903e-03,2.34890e-02,1.05019e-02,1.47435e-02,4.46319e-03,5.49577e-02,5.14194e-02,1.90977e-02,3.87956e-03,1.23364e-02,-2.11912e-02,3.20339e-02,3.08655e-02,-1.23444e-02,-1.32619e-02,1.39572e-02,-3.34947e-02,1.53868e-02,6.19770e-03,2.38605e-02,9.44719e-02,-4.37484e-02,6.62255e-02,1.17532e-02,-3.86188e-02,-2.21368e-02,-4.00448e-02,-2.75296e-02,-1.82268e-02,3.41681e-02,-6.12550e-03,2.34990e-02,3.75529e-02,1.40013e-02,-3.35776e-02,2.54291e-02,1.53399e-02,3.39421e-02,-2.85902e-02,2.01559e-02,2.91701e-02,-3.19288e-02,-1.45679e-03,3.54423e-02,-2.94350e-02,-6.50884e-02,1.77466e-02,3.14972e-02,2.80454e-02,4.63344e-02,2.95831e-02,-1.38801e-02,-5.77830e-04,-3.55096e-02,-2.11166e-02,-7.14103e-03,-2.45613e-02,5.20303e-02,1.39621e-02,1.15923e-01,1.50468e-02,-4.84085e-02,2.41598e-01,5.61710e-03,9.30607e-03,1.35910e-02,-1.86006e-03,-1.87816e-02,2.91719e-02,2.61872e-02,-3.38099e-02,2.10966e-02,2.40700e-02,-1.63399e-02,-1.22012e-02,-1.93420e-02,-2.68969e-02,2.23923e-02,-2.45650e-02,2.98547e-02,-3.96748e-02,-7.60664e-03,4.33856e-02,1.77661e-02,3.24083e-02,3.66013e-02,4.17589e-02,7.60596e-03,-9.25240e-03,-2.86854e-02,4.15491e-03,3.72035e-02,-1.15529e-02,3.17370e-03,-2.74775e-02,-3.68450e-03,1.40171e-02,-3.25547e-02,-2.10801e-02,3.39910e-02,1.21928e-02,1.14585e-01,1.19725e-02,-6.35191e-04,-1.27724e-01,-5.83779e-02,8.05231e-03,-3.62708e-03,-1.32917e-02,-2.01847e-02,-3.50973e-02,9.90850e-04,6.28180e-02,2.33723e-02,1.81647e-02,-2.52194e-02,-3.15068e-03,-7.81597e-02,-3.28856e-02,-9.27359e-03,6.29806e-03,-1.48823e-02,-1.34071e-04,-5.35397e-03,5.08680e-02,8.40973e-02,-2.05289e-02,2.72519e-02,-2.71991e-02,7.52541e-03,3.51722e-02,-1.54287e-02,3.73290e-02,3.56423e-02,4.48441e-02,-9.81105e-03,3.67330e-02,1.41647e-02,-1.39037e-02,1.40917e-02,8.79708e-03,2.19668e-02,4.85321e-02,-3.36215e-02,2.47677e-02,7.34607e-03,2.57412e-02,2.75544e-02,-2.08163e-02,-2.99002e-02,5.07307e-02,-2.18937e-02,3.12350e-02,-3.84056e-02,-8.46733e-04,-3.66574e-04,3.22113e-03,-2.25916e-03,1.23756e-02,-2.12230e-03,6.89586e-03,3.90788e-02,-2.13979e-02,1.71721e-02,-6.61675e-03,3.57810e-02,3.45756e-02,-1.30572e-03,-1.95334e-02,-7.44645e-03,3.07637e-02,-5.46545e-02,5.36890e-02,2.85210e-02,2.98784e-02,4.70950e-02,-2.25406e-02,-4.20848e-02,3.95988e-02,1.59976e-02,5.58522e-04,2.45831e-03,-3.19962e-02,-2.73465e-02,-2.78833e-03,1.00350e-03,-2.38265e-03,3.04844e-02,-1.82108e-02,1.01547e-02,9.57522e-03,3.36322e-02,6.56876e-03,1.78796e-02,3.16782e-02,3.81396e-02,-1.37844e-02,2.14249e-02,-5.41041e-02,-9.71568e-03,-6.37727e-02,1.44292e-02,-3.99891e-02,3.53246e-02,-2.11461e-02,-1.34092e-01,1.33303e-03,2.83459e-02,9.02915e-03,-2.33851e-02,-4.74801e-02,-3.84691e-02,-3.13098e-03,-8.94439e-03,-1.44700e-02,-2.33371e-02,-2.46296e-02,-2.50685e-02,-4.24013e-02,-2.80704e-02,3.64948e-02,-2.20903e-02,-1.33737e-02,-2.06836e-02,-3.75577e-02,-1.42044e-02,8.22407e-03,-2.23004e-02,-9.04129e-03,-9.48622e-03,-4.48722e-02,3.64242e-02,2.64097e-02,2.09231e-02,-1.68466e-02,1.69277e-02,-3.79593e-02,-1.94755e-02,-9.19026e-03,-1.58432e-02,1.41456e-02,-2.92823e-02,-7.68296e-03,-1.71264e-02,-4.38623e-02,-1.75543e-02,-4.26003e-02,2.66423e-02,3.16581e-02,3.24487e-02,-8.70719e-03,5.94860e-02,4.44820e-03,4.42251e-02,4.88788e-02,-2.66188e-02,-2.97746e-02,4.63426e-02,-2.19519e-02,3.22400e-02,1.12047e-02,3.97403e-02,2.77471e-02,-2.58307e-03,-2.92821e-02,3.82987e-02,3.53933e-02,1.08126e-02,-2.41479e-02,6.77177e-02,3.10358e-02,5.06996e-02,5.55987e-02,1.74721e-02,-5.31920e-02,-4.36033e-02,1.59954e-02,-1.65559e-02,-2.73476e-02,3.33258e-02,4.52197e-03,3.50398e-02,-3.47584e-02,1.21523e-02,-3.21968e-02,-2.47919e-02,-1.53503e-02,-2.43808e-02,2.17764e-02,-7.90560e-03,2.47956e-02,2.81154e-03,-9.16449e-03,-2.24286e-02,-4.54606e-02,-1.26729e-02,-4.24320e-02,-1.16993e-02,-3.02728e-04,-7.52412e-03,-1.78820e-02,1.80290e-02,1.70758e-02,-1.47468e-02,-2.12576e-02,1.75255e-02,2.94558e-02,-3.86762e-02,-1.27288e-02,-1.00792e-02,-1.31503e-02,3.25513e-02,-1.47398e-02,2.76225e-02,-1.90222e-04,-8.74545e-03,-3.20484e-02,-2.02966e-02,6.19286e-03,9.85346e-03,-5.84892e-03,2.90662e-02,-3.63976e-02,9.00624e-03,3.87624e-02,-1.71504e-02,3.12821e-02,-2.75547e-03,-2.67516e-02,-1.74898e-02,3.39395e-02,-1.91747e-02,1.17875e-02,4.04976e-02,2.49714e-02,-1.01687e-02,5.81194e-02,-2.31397e-02,-2.96588e-02,-3.69834e-02,-3.93897e-02,3.13657e-03,1.01931e-02,-1.77923e-02,-4.34203e-02,1.70708e-02,-2.91097e-02,-7.03641e-03,-2.04259e-02,3.76907e-05,4.18028e-02,-4.38823e-02,-9.24863e-04,9.09622e-02,1.43283e-01,-3.55334e-02,-1.54552e-02,1.00039e-02,-3.00546e-02,6.12181e-02,5.61062e-02,8.37644e-02,3.07984e-02,-3.83216e-02,1.43754e-02,8.03799e-03,-1.04540e-02,-3.95108e-02,1.61482e-02,2.22151e-02,-1.70266e-02,1.72295e-02,1.06925e-02,-2.10223e-02,-3.85281e-03,3.04406e-02,-6.10469e-03,-2.94336e-02,-7.66900e-03,9.82957e-03,-1.48736e-02,-2.43828e-02,2.62802e-02,1.59354e-02,-9.14976e-03,-3.59847e-04,-8.03171e-03,3.29017e-03,2.56420e-03,-3.04436e-02,-2.80436e-03,-4.80359e-03,3.63341e-03,-1.66706e-02,5.92676e-03,-3.93201e-02,1.11588e-02,2.06147e-02,-1.05661e-02,-4.09220e-02,-4.52931e-03,-6.18184e-03,-3.96605e-02,-3.43780e-02,2.90495e-02,-5.08369e-02,-3.25067e-02,-9.58792e-02,-8.31317e-04,2.01151e-02,-5.21010e-02,-7.98749e-02,-4.01834e-02,4.21007e-02,1.39980e-03,-1.41264e-02,-4.65337e-02,5.83412e-03,3.61451e-02,3.37623e-02,6.16490e-03,3.31895e-02,-4.46308e-02,-2.73407e-02,-3.99784e-02,3.12319e-02,2.12762e-02,-2.13853e-02,1.04259e-02,-2.86436e-02,-3.63561e-02,1.33905e-02,3.70543e-03,-2.90964e-02,-3.20241e-02,1.19200e-02,2.61998e-02,-1.74533e-04,-2.63768e-02,3.26664e-02,7.87083e-03,2.71905e-02,-3.36067e-02,3.18121e-03,1.82644e-02,-1.78649e-02,1.54780e-02,-2.29548e-02,3.26719e-02,2.55571e-02,5.07505e-03,1.71145e-02,3.17539e-02,-2.90462e-02,6.68374e-03,6.83900e-02,4.11514e-02,4.12963e-02,-1.38813e-02,-5.88847e-02,-1.68076e-02,-1.08204e-01,5.34738e-02,-1.85390e-02,
-3.29780e-02,-2.84854e-03,-3.07071e-02,-3.53748e-02,4.14853e-03,-4.06661e-02,7.58945e-03,1.45192e-02,-1.12824e-02,-7.22755e-03,-3.37144e-02,2.42124e-02,4.92788e-02,2.70666e-02,4.68318e-02,-5.80958e-02,-1.11425e-02,5.82913e-05,-4.20044e-02,1.26954e-02,-2.88432e-02,-2.58201e-02,-5.92979e-02,5.81467e-04,-3.72208e-02,2.03422e-02,1.49140e-02,2.45836e-02,7.33004e-03,-9.47099e-03,-1.82678e-02,1.92349e-02,7.21802e-06,4.83992e-02,7.94333e-03,3.57680e-02,-3.53985e-02,4.21491e-02,-2.22253e-02,-3.18012e-02,-7.99603e-02,4.09833e-01,1.40151e-02,3.79613e-02,-2.16932e-02,1.84592e-02,-3.19867e-02,1.05712e-02,3.55658e-02,-4.96148e-02,4.69877e-01,3.17797e-02,-8.50278e-02,3.37260e-01,-1.08722e-02,3.99399e-03,-6.63556e-02,2.75419e-02,8.65925e-02,4.00787e-03,3.22886e-04,-3.37800e-03,5.03289e-04,1.01949e-01,-1.76227e-02,-4.13519e-02,-2.06367e-02,-7.93789e-03,3.00047e-02,1.03749e-02,-3.08379e-03,-1.33270e-02,-6.84419e-03,-4.24273e-02,4.33544e-03,-2.62789e-02,2.94553e-02,-5.84849e-02,8.72267e-03,-3.07668e-02,-5.58248e-04,2.57531e-02,-2.21748e-02,-1.65173e-02,2.25897e-02,4.67139e-03,-3.51349e-02,-4.48451e-02,-2.35037e-02,-2.64695e-02,7.62415e-03,-1.95795e-02,5.20021e-02,-7.07682e-03,-2.55247e-03,1.67813e-03,2.68105e-02,3.19096e-02,-5.35377e-03,-1.54598e-02,-3.20937e-02,1.70989e-02,-5.89224e-02,-4.54159e-02,-6.92987e-02,-1.44962e-02,2.56309e-02,7.66816e-03,3.12435e-02,3.77498e-02,1.89077e-02,2.03553e-02,-3.43631e-03,3.88944e-02,1.32827e-02,8.08159e-03,1.85215e-04,-2.45753e-02,-1.41953e-02,-1.55832e-02,-4.91338e-04,-3.63939e-02,2.78740e-02,-3.91994e-02,-2.37807e-02,-3.15784e-02,1.91847e-02,-4.31180e-02,5.46572e-03,1.28501e-02,2.01860e-02,7.09203e-04,3.27399e-02,4.28420e-02,1.78218e-02,6.41002e-04,-3.84545e-02,-1.90694e-02,-2.68586e-03,-6.24446e-03,-2.80339e-02,-5.08360e-02,-1.10616e-01,1.10232e-02,1.36506e-02,-4.08348e-02,2.95652e-03,-3.10181e-02,-2.54724e-02,-1.13792e-01,1.73724e-03,4.99910e-03,-3.42946e-02,4.61089e-02,2.18391e-02,4.68693e-03,4.13598e-02,-1.30200e-02,-3.98881e-03,-7.14136e-03,6.26922e-04,-3.12292e-02,-2.56477e-02,6.08372e-03,5.29428e-03,3.16621e-02,-3.14019e-02,4.14044e-03,-2.25440e-02,9.03313e-03,-9.66376e-03,2.26071e-02,3.07147e-02,4.20553e-02,3.07326e-02,-6.81045e-03,2.56893e-02,-3.18634e-02,2.98112e-02,2.72026e-02,3.02219e-02,-3.18097e-02,-6.19311e-02,-2.36034e-02,-1.45102e-02,1.09619e-01,8.33410e-03,3.84700e-02,-7.44094e-03,-1.28760e-02,2.02349e-02,1.31639e-02,-4.04686e-02,1.91654e-02,-4.60250e-02,-7.42029e-03,-1.00733e-02,3.28547e-02,-3.41303e-02,-2.72163e-02,-5.74137e-02,2.53762e-03,-3.34957e-02,4.29718e-03,-3.88966e-02,-4.47076e-02,-3.07238e-02,6.43637e-04,1.55515e-02,2.38881e-02,5.21767e-04,-3.38657e-02,-1.81342e-02,-3.01158e-02,-1.00579e-02,1.02815e-02,8.49867e-03,9.23563e-03,-4.05100e-03,-2.53082e-02,2.09627e-03,-1.99642e-02,-3.05303e-02,3.21338e-03,2.04286e-04,-3.83401e-02,1.35203e-02,-1.69146e-02,-4.95339e-02,2.00112e-02,-2.80007e-02,-9.47691e-04,3.32618e-02,-9.41748e-03,-2.13907e-02,1.87914e-02,2.33303e-02,-1.06583e-02,-2.52374e-02,-1.78816e-02,2.35301e-02,-5.32803e-03,2.11723e-02,-8.08664e-03,-4.59423e-04,-1.16689e-02,-9.14260e-03,-5.73559e-02,-3.26030e-02,-1.08061e-03,2.08704e-02,3.04803e-02,-9.18036e-03,1.01129e-02,9.98559e-03,-4.17486e-02,-5.08252e-02,-3.78560e-02,-3.78021e-03,-3.68499e-02,-4.21761e-02,-4.90796e-04,8.55276e-03,5.89885e-04,3.98173e-02,2.17499e-02,-4.36616e-02,-1.35231e-02,-8.35997e-03,1.91455e-02,-2.30420e-02,-3.33977e-02,-4.46211e-02,1.58542e-02,-2.15350e-02,-2.26000e-02,2.18675e-02,3.33096e-02,-1.45751e-02,-3.85184e-02,1.70489e-02,-2.16180e-02,-2.80291e-02,-3.56059e-02,-3.69903e-02,-4.62240e-02,-3.13949e-02,-7.12784e-02,-3.21381e-02,-8.07963e-03,-4.05907e-02,-8.37821e-03,-2.13990e-02,4.61008e-02,3.28466e-02,-1.06609e-02,-8.92872e-03,-2.71902e-02,-4.49902e-03,2.63336e-02,2.05106e-02,2.90895e-02,-8.90167e-03,1.18053e-02,-4.58434e-02,2.91733e-03,3.23710e-02,-5.13839e-02,-3.00488e-02,2.09945e-02,-1.14326e-02,-2.77616e-02,1.49468e-02,-5.33070e-03,-3.90921e-03,-1.97134e-02,2.15085e-02,1.18981e-02,3.79864e-03,-2.55209e-03,1.01932e-02,1.89884e-02,-2.16653e-02,-1.14779e-02,1.26373e-02,-2.85697e-02,3.14286e-02,-3.88402e-02,9.67529e-03,-3.70696e-02,7.53108e-03,1.84076e-02,-5.43343e-03,-1.09349e-02,2.02271e-02,-3.71866e-02,-3.45806e-02,-3.97735e-02,-2.97222e-02,-3.24122e-03,-2.65231e-02,3.88086e-03,-5.44958e-03,2.28789e-02,-3.36718e-02,-2.64328e-02,1.83986e-02,-2.37342e-02,1.78544e-02,-2.43122e-02,-1.73948e-02,-2.54958e-02,7.99098e-03,2.84979e-03,-3.95346e-02,1.72819e-02,-1.28634e-02,-1.93151e-02,-8.10565e-03,1.37233e-02,3.33036e-02,8.50775e-03,-1.54078e-03,1.25008e-02,-2.62485e-02,-2.82499e-02,-4.38856e-02,-5.65396e-02,-7.48147e-03,6.64763e-03,-1.36790e-02,-4.73513e-04,3.01599e-02,4.09454e-02,3.43379e-02,-4.18602e-02,4.45852e-03,4.31303e-03,1.14727e-02,-1.09923e-02,5.51968e-03,9.46992e-04,3.13521e-02,-4.52660e-02,-2.52935e-02,-3.66959e-02,-2.68994e-02,1.13262e-03,1.54171e-02,-4.11768e-02,1.66957e-02,2.62768e-02,-2.80220e-02,-1.93856e-03,-3.40378e-02,6.50757e-04,-2.21753e-02,-2.59273e-02,-3.75119e-02,-4.59542e-02,2.42752e-02,-1.41400e-02,-7.95592e-03,-3.06908e-02,1.83844e-02,-3.12149e-02,-2.58308e-02,-3.89233e-02,-3.74162e-02,2.27245e-02,-4.15822e-02,-1.28827e-02,-1.92219e-02,7.46431e-03,1.63878e-03,-4.01641e-02,2.81922e-02,-5.32245e-02,-8.63644e-03,-7.80646e-03,-1.70260e-02,1.72721e-02,2.94739e-02,-5.75252e-03,-2.24846e-02,2.03461e-02,1.48414e-02,-6.85581e-03,-1.94749e-02,-6.87023e-03,2.51182e-02,-8.43994e-03,-2.26893e-02,-5.04151e-02,-2.80003e-02,2.64114e-02,-6.19196e-03,-1.41020e-02,3.43376e-03,-3.40282e-02,-1.07126e-02,-1.64372e-02,1.46690e-02,2.63691e-02,1.57456e-02,1.19143e-02,-6.06568e-02,-3.51610e-02,-1.84401e-03,-4.28339e-02,-4.57121e-05,2.62350e-01,1.25107e-02,3.72253e-02,-3.74117e-02,2.68923e-02,1.19353e-02,-3.41684e-02,2.16955e-02,-4.68329e-02,-3.34406e-02,-2.97091e-02,-1.24077e-02,-7.22455e-04,-1.84804e-02,-4.51382e-02,-1.08938e-02,2.40717e-02,2.42520e-02,1.07262e-02,-3.48060e-03,5.83924e-03,-4.20184e-02,1.02279e-02,-4.99128e-02,-2.32442e-02,-1.62619e-02,2.25953e-02,-1.01928e-02,-2.92403e-02,-3.52422e-03,-4.17546e-02,-2.28506e-02,2.87474e-03,-1.17064e-02,-8.97424e-03,1.84732e-02,-4.27741e-02,-2.77300e-02,2.93359e-02,-4.30201e-03,-1.47094e-02,1.25907e-02,1.82702e-02,-1.36071e-02,-2.46877e-02,-1.31628e-02,6.09600e-03,-9.65925e-03,1.45695e-02,-3.94336e-02,-2.85381e-02,1.81264e-02,3.74588e-03,1.13483e-03,1.50601e-02,-9.81860e-03,-2.32859e-02,1.17257e-02,-2.09498e-02,-4.15333e-02,-6.30578e-03,-1.06885e-03,1.81162e-02,-1.35592e-02,-1.97510e-02,-3.67768e-02,6.77059e-03,-4.07551e-02,2.26512e-02,1.87430e-03,-4.77772e-02,2.03362e-02,-6.56586e-02,-9.96589e-03,-2.53287e-02,-5.04635e-02,-6.31954e-04,-2.86287e-02,2.47382e-02,-4.35291e-02,2.82889e-02,1.76638e-02,2.61121e-02,-1.77893e-02,-3.50803e-02,-4.96302e-02,2.79234e-02,-3.22475e-02,8.02184e-05,-2.85452e-03,-1.52692e-03,-4.48351e-02,2.77304e-02,-4.01280e-02,3.28351e-02,-2.28124e-02,-2.80220e-02,-1.44532e-02,-9.02796e-03,-1.61602e-02,-4.59048e-02,2.62755e-02,3.20947e-02,2.11249e-02,3.78859e-02,5.22132e-03,2.11138e-03,4.69520e-02,-2.83966e-02,-4.43034e-02,
-2.04882e-03,1.40291e-02,-1.41972e-02,2.93552e-03,-1.62403e-02,-3.65399e-02,-3.05140e-03,2.30962e-02,2.27457e-02,1.23352e-01,-2.58189e-03,-1.69898e-03,2.71404e-02,-1.30390e-03,-1.58470e-02,2.53997e-02,8.99186e-03,-4.11150e-02,2.96543e-02,-3.67684e-03,1.21037e-02,-3.91349e-02,-1.28984e-01,9.06504e-03,9.87418e-03,-3.10031e-03,3.39487e-02,2.53795e-02,9.88455e-02,2.88701e-03,-2.74236e-03,2.61305e-02,-4.25341e-03,-1.32083e-02,1.77564e-03,8.71094e-03,1.33391e-02,-1.06319e-01,-1.63471e-02,-4.86706e-02,8.83251e-02,-2.31981e-01,-4.54288e-02,1.20779e-02,-2.71095e-02,-7.14762e-03,1.05297e-02,2.88339e-03,3.14461e-02,8.96160e-02,-1.94279e-01,-8.31151e-03,8.51816e-02,-1.59542e-01,1.89626e-02,-1.67026e-01,8.17128e-02,-9.18225e-02,-6.10546e-02,2.23001e-02,-4.10280e-02,-4.11272e-02,-8.16732e-03,-5.48523e-02,3.03955e-02,6.38586e-03,1.26370e-02,3.50867e-02,-3.81695e-02,2.22265e-02,-2.07204e-02,2.87700e-02,-1.92838e-02,4.62711e-02,-5.05657e-02,9.87602e-03,-1.12451e-02,5.83054e-02,-8.03426e-04,2.03381e-02,-3.06805e-02,-3.24597e-03,2.62629e-03,1.46372e-02,-5.69660e-03,5.80360e-03,-5.24799e-03,-3.67197e-02,-3.17797e-02,1.64474e-01,-5.42776e-03,7.01310e-03,1.14013e-01,4.33869e-02,-6.89881e-03,-3.62896e-02,1.83838e-03,-1.74238e-02,-8.08409e-03,3.09788e-02,-3.98814e-02,2.68977e-02,-5.10037e-02,-3.65893e-02,8.52581e-04,-8.66243e-03,4.28211e-03,1.62432e-02,1.67340e-02,-3.21418e-02,1.92954e-04,-4.90520e-03,3.70429e-02,9.41218e-03,2.04691e-02,2.45545e-02,-6.25063e-03,-3.33828e-02,7.89439e-02,-8.73268e-02,-2.69841e-02,9.33969e-04,-5.77203e-03,-2.80118e-03,2.64790e-02,-1.24744e-02,-4.15111e-02,-2.27198e-02,3.71067e-02,-1.54061e-02,-2.04911e-02,9.61225e-03,6.19839e-03,-2.87373e-02,3.18429e-02,8.94403e-03,2.76018e-02,1.71174e-02,-2.53494e-02,-2.42296e-02,1.10630e-02,-2.03717e-02,5.26926e-02,-5.52750e-02,-3.34698e-02,1.77070e-02,-8.32744e-03,-1.42564e-02,-2.42028e-02,4.75346e-02,-4.74155e-04,-3.30656e-02,4.96295e-02,2.94310e-02,-4.10314e-02,-2.54785e-02,1.25327e-02,1.39834e-02,1.52296e-02,-3.25720e-01,-1.28657e-02,1.15552e-03,-2.13505e-02,-5.95101e-02,-2.97206e-02,-5.30779e-03,-7.66615e-02,3.47658e-02,-6.16806e-04,-1.81684e-02,1.39271e-02,-4.19169e-02,-2.28277e-02,1.76065e-02,-3.07317e-02,1.72003e-02,-2.58847e-03,-3.84005e-02,-5.18742e-02,-4.81841e-02,1.39003e-02,-9.95783e-03,-4.30773e-02,-3.60314e-02,-1.51074e-02,-2.69189e-02,3.35919e-03,6.35417e-03,4.43796e-03,1.32354e-02,3.74722e-02,3.79088e-02,4.62476e-02,-3.85781e-03,-1.38604e-02,-3.06310e-03,6.57450e-03,1.79949e-02,3.30920e-02,-3.35617e-02,-4.03931e-02,1.32861e-01,-9.46772e-04,1.18386e-02,-3.57337e-02,-3.01694e-02,1.44877e-02,2.09206e-02,-2.01861e-02,-3.07088e-02,2.26689e-02,-2.53240e-02,-2.11047e-02,-1.76411e-02,1.24876e-01,2.42943e-02,2.56249e-02,-1.06721e-02,1.16743e-02,-1.67424e-02,2.41609e-02,6.13536e-03,-1.37921e-02,8.81979e-03,-1.64432e-02,2.17584e-02,1.01868e-02,-3.71395e-02,-4.23168e-02,-1.48435e-02,1.62729e-02,-2.41983e-02,3.84796e-02,-3.28862e-02,-5.89426e-02,2.24238e-02,-3.03240e-02,-1.08363e-02,-1.05488e-02,-1.47642e-02,-3.20412e-02,-4.74217e-02,1.75626e-02,-1.42235e-02,-3.81050e-02,2.07619e-03,-4.22770e-02,-2.03845e-03,1.59941e-02,3.48660e-02,-2.78648e-02,-9.07049e-03,1.47842e-02,3.17070e-02,-3.11726e-02,1.13525e-02,1.23595e-02,1.96202e-02,-3.69173e-02,2.24467e-02,-2.80316e-02,-2.32651e-02,2.82827e-03,3.06352e-02,-2.75039e-02,1.69383e-02,-2.09648e-02,6.52192e-03,3.63726e-02,-1.54143e-02,-4.07555e-02,-1.17331e-02,-7.26233e-03,-3.81010e-02,-2.54796e-03,-1.00497e-01,-1.45250e-02,-8.25986e-04,-3.72411e-02,-3.14096e-02,5.89780e-03,-3.99665e-02,2.74745e-02,-3.35042e-02,-8.41058e-03,-2.92835e-03,1.09556e-02,-4.94996e-02,-1.53337e-02,8.07130e-03,3.34217e-02,-4.09074e-02,-3.33198e-02,2.13016e-02,2.53450e-04,1.41213e-01,-5.81617e-02,-3.50822e-02,-7.86111e-02,-3.99829e-02,-1.05501e-01,-6.27196e-02,6.46013e-02,2.10853e-02,-3.16022e-02,-1.42243e-03,-8.65104e-03,2.11683e-02,-2.93090e-02,-4.13227e-03,6.02172e-02,1.78579e-02,-4.83104e-02,-8.11620e-03,6.76314e-03,-2.09102e-02,-8.10650e-02,-3.49758e-02,1.93599e-02,-1.59509e-02,-3.37473e-03,5.16073e-03,-2.63831e-02,-1.78267e-03,2.51835e-02,-3.27476e-02,1.15603e-02,-8.49186e-03,1.58019e-02,2.02671e-02,1.12702e-02,-5.09121e-03,-3.99290e-02,5.18895e-03,2.07247e-02,-2.33895e-02,-4.66113e-02,2.32457e-02,-6.85908e-03,-1.05253e-03,-1.25892e-02,2.39804e-02,4.32706e-02,2.35903e-02,-2.46740e-02,1.65290e-02,1.37571e-02,-7.96298e-03,-5.85755e-02,-2.09361e-02,-4.88338e-02,1.32656e-02,3.84147e-02,1.12536e-02,-1.58026e-02,4.84536e-03,3.44635e-02,-3.08677e-02,-2.13610e-02,-4.18110e-02,-1.32314e-02,-2.39111e-03,6.74856e-03,-3.90762e-02,-9.91690e-03,-3.97092e-02,-6.37192e-02,-1.62535e-02,-4.01592e-02,8.40607e-03,-4.09944e-02,2.71389e-02,4.66343e-03,-3.78775e-02,4.89051e-02,1.91544e-02,-2.49042e-02,-1.30300e-03,5.16833e-03,7.81635e-03,-1.74615e-02,-2.61673e-02,2.21643e-02,-4.10762e-02,-1.01381e-02,-6.02150e-03,-2.40366e-02,-1.78967e-02,-3.79191e-02,-1.10371e-02,-1.20645e-02,3.15435e-02,-2.14981e-02,2.54717e-02,-5.34420e-03,-2.91568e-02,-1.47665e-02,-1.36171e-02,4.27081e-03,-9.34123e-03,8.51763e-03,2.68730e-02,2.76339e-03,1.05367e-02,1.89817e-02,2.06900e-03,1.15990e-02,1.07219e-02,2.79907e-02,-3.62224e-02,1.51521e-02,-9.81839e-03,-1.18433e-02,-2.03476e-02,1.93127e-02,3.04939e-02,-3.20801e-02,2.14616e-02,3.22248e-02,3.98122e-03,-5.54317e-03,2.19054e-02,-4.51197e-03,-1.85726e-02,-6.43832e-03,7.36444e-03,-1.60677e-03,-1.20578e-02,3.42602e-03,-2.32946e-03,-3.06937e-02,1.29807e-03,2.05931e-02,-5.31176e-02,-1.31400e-02,1.58927e-02,-3.96027e-02,-1.98398e-02,-1.61080e-02,2.68771e-02,-4.36267e-02,1.20529e-03,-5.06397e-02,-1.94745e-03,7.09661e-03,-1.73398e-02,2.54215e-02,-1.45373e-02,-2.01937e-02,1.31744e-03,9.28865e-03,-1.83991e-01,1.96296e-02,-2.54100e-02,-1.85761e-03,9.39727e-03,-5.01095e-02,-6.67968e-02,-8.50327e-02,-1.25798e-01,-3.88480e-02,-7.92782e-03,-1.30138e-02,2.36725e-02,2.58592e-02,1.79255e-02,-2.50958e-02,-3.56794e-02,-4.87360e-02,9.55873e-03,-4.00303e-02,-4.96459e-02,-2.11544e-02,-4.07784e-02,-2.26262e-02,-2.80571e-02,-2.19176e-02,3.08194e-02,-1.62599e-02,3.55128e-02,-2.35453e-03,-1.21415e-02,-1.48612e-02,-3.50553e-02,-3.57009e-02,1.74711e-02,-1.59231e-02,-4.03152e-02,3.20152e-02,-7.93559e-03,-3.26436e-02,-3.78585e-02,-3.63143e-02,-4.46010e-02,3.13798e-02,2.55592e-02,1.92083e-04,-4.04310e-02,-1.55323e-02,-4.45509e-02,1.02731e-02,-1.31159e-02,9.55406e-02,5.98672e-03,1.47248e-01,1.91362e-02,3.59037e-03,9.21496e-02,6.65472e-02,3.62730e-02,-3.52029e-02,2.78502e-02,-1.88394e-02,3.08106e-02,-1.01603e-02,-8.09723e-03,9.12842e-03,-4.61839e-02,8.97417e-03,-3.20898e-02,-2.22486e-03,-1.55832e-02,1.36208e-02,2.23428e-02,4.72874e-03,4.71816e-03,1.19770e-01,5.58336e-02,-2.13524e-02,1.19426e-02,-1.63041e-02,2.33046e-02,2.77367e-02,2.34231e-02,-3.18339e-03,2.02574e-02,-4.14162e-02,2.48650e-02,-2.18903e-02,1.38854e-02,-1.08552e-02,-1.74383e-02,-1.82984e-02,2.15660e-02,-3.10574e-02,-1.00041e-02,1.77881e-02,-3.93859e-03,-3.82155e-02,-4.90437e-02,-2.76894e-02,3.09006e-02,-8.28266e-02,-3.30737e-02,2.56819e-02,-1.67546e-02,7.82520e-03,-2.79156e-02,-7.67712e-02,3.12575e-02,1.42872e-02,
4.03683e-03,-5.22293e-05,1.48294e-03,7.94922e-02,5.47463e-02,1.78997e-02,2.67147e-02,1.56778e-02,4.99815e-02,1.94711e-01,-5.41992e-03,-1.51323e-02,-4.98142e-02,-3.44287e-02,1.14402e-03,2.38093e-02,1.35313e-02,-1.40446e-02,5.24398e-03,4.54030e-02,-4.09640e-03,4.22987e-04,-3.07253e-02,3.10420e-02,1.66158e-02,-6.51581e-02,-6.77801e-04,5.30490e-03,1.19219e-01,6.04374e-03,-2.36465e-04,8.66798e-04,-4.83852e-03,-2.54449e-02,-2.69500e-04,3.09187e-03,-2.11971e-02,-2.66088e-01,-1.19555e-04,-1.33854e-01,-7.97359e-04,-1.50355e-01,3.26151e-02,-2.47594e-02,-5.53918e-02,-4.97512e-02,-1.38280e-02,-6.00308e-02,-2.95586e-02,2.00388e-02,-1.20675e-01,3.59312e-02,-5.87191e-03,-8.31230e-02,2.34872e-02,-1.15544e-01,2.36911e-02,-3.63688e-02,-3.03888e-03,-1.19859e-02,-5.22128e-02,-1.14550e-02,7.09107e-02,-8.53488e-02,-3.55133e-02,-9.83057e-02,2.38177e-02,-8.52414e-02,5.28735e-02,-6.40084e-02,-2.74670e-03,2.92977e-02,-1.30496e-02,3.67667e-02,-3.44792e-02,-1.13439e-03,1.80468e-02,1.41559e-02,-8.82595e-02,-9.45381e-03,3.33718e-02,-2.02792e-04,1.58550e-03,4.78565e-02,3.52173e-03,-2.95107e-03,3.82036e-02,2.47894e-02,5.66517e-03,2.69696e-01,2.15421e-02,-2.08072e-03,8.60798e-02,1.02339e-02,2.47818e-03,5.53010e-02,-7.36285e-03,8.66720e-03,9.05142e-03,2.54902e-02,-5.10507e-03,-2.65273e-03,3.29102e-02,7.91395e-02,6.06733e-02,-3.83096e-02,-2.53135e-02,2.57716e-04,-2.43327e-02,2.06541e-03,1.09614e-02,-8.68727e-03,3.24567e-02,-6.04075e-02,1.25106e-04,4.19461e-03,3.78681e-03,-8.21454e-03,6.60728e-02,-5.25769e-02,-5.75719e-04,-4.20794e-03,4.07869e-02,3.19728e-02,8.70101e-03,4.64436e-03,-8.72542e-03,4.45125e-02,-2.72396e-03,-7.56810e-03,-2.58878e-02,2.52333e-02,1.04116e-02,2.21831e-02,1.24241e-02,1.68804e-02,5.29237e-03,-3.71571e-03,7.27399e-04,1.60327e-02,7.11606e-03,3.22493e-02,8.17411e-02,2.34197e-04,7.42389e-02,-6.31782e-02,3.72080e-02,-8.52757e-04,-7.03925e-02,1.14927e-02,3.39506e-02,-1.97567e-04,-7.06074e-03,-1.89747e-02,-4.86122e-04,1.81284e-02,-1.02624e-01,-5.53010e-02,-4.23717e-02,-3.13625e-01,6.87142e-03,-2.06940e-04,1.38844e-06,-1.90735e-03,1.02161e-04,1.70031e-02,-3.02366e-02,-2.93741e-02,-8.79330e-04,-6.06678e-03,-2.33540e-02,1.50107e-02,-3.89219e-03,1.23215e-02,2.63603e-02,1.68769e-02,7.56954e-03,-1.80772e-02,-4.43902e-02,-9.01624e-02,1.52242e-04,-1.41153e-03,4.41449e-02,7.87031e-02,9.72091e-02,-3.67927e-02,1.00171e-02,-4.65114e-04,-1.21930e-02,-2.13500e-04,-5.66224e-03,1.30873e-02,4.15837e-03,-4.58797e-02,2.86344e-04,-1.35101e-03,1.95906e-02,1.25193e-04,-4.52802e-02,-6.39899e-03,1.05930e-02,1.16148e-01,-6.55585e-03,2.80036e-02,-5.90682e-03,6.97930e-02,-6.95941e-03,-1.92296e-02,8.05458e-02,-1.23268e-01,3.94988e-02,1.31904e-02,3.51009e-03,5.88538e-02,1.65516e-01,-1.03052e-02,4.08483e-03,8.76259e-03,2.22496e-02,2.83611e-04,-2.21104e-02,9.02751e-02,-1.04124e-01,1.49077e-02,-2.22780e-04,1.24731e-02,1.73729e-02,3.39878e-02,-1.76492e-05,-2.84306e-03,-1.77071e-03,-1.40703e-04,-4.31895e-02,1.44487e-02,4.94839e-02,-4.41741e-03,-4.87553e-04,2.04215e-03,-2.90535e-03,2.71403e-02,-4.40167e-03,2.34475e-02,1.00919e-02,-3.08273e-03,1.53089e-02,-5.87317e-04,3.62548e-03,5.53651e-02,3.75196e-03,2.35747e-02,-4.04393e-04,6.87162e-04,9.69687e-03,-9.41412e-03,1.63247e-04,1.67441e-02,-1.51257e-02,-2.64306e-03,-2.42956e-02,-3.74149e-02,7.97906e-02,1.07713e-02,-7.84162e-03,1.28325e-04,-1.01919e-04,3.79599e-02,6.17047e-02,4.32844e-02,1.33521e-01,-1.11979e-02,2.63351e-03,5.55332e-02,3.12805e-02,2.72119e-02,8.68110e-02,-7.47015e-02,2.86191e-02,1.00185e-02,1.16597e-02,-1.22059e-02,6.59494e-02,9.24007e-03,-7.40105e-03,-2.25645e-02,4.13646e-02,1.24220e-05,1.80417e-02,1.13514e-01,6.39956e-02,3.18837e-02,-2.72414e-02,-3.18333e-02,1.48503e-04,-8.80419e-02,-1.17405e-04,5.89770e-02,8.83623e-02,1.28387e-01,-7.29342e-02,-1.77228e-02,-1.05022e-01,-7.46692e-02,1.20257e-01,-2.32904e-05,7.40801e-03,-2.66559e-02,-2.91089e-02,-1.72262e-02,-4.53264e-03,-7.38294e-04,-1.11442e-03,-1.11494e-02,-1.76624e-02,2.00183e-02,-1.16374e-02,2.51511e-02,-4.37960e-02,-1.78514e-02,-3.87286e-02,1.49649e-02,-3.06004e-02,6.63973e-03,-2.05479e-02,1.88645e-02,-1.01719e-05,-3.55409e-02,1.98634e-04,-7.08873e-03,-3.68577e-02,1.65944e-04,2.61478e-02,1.77129e-03,-5.21315e-03,-2.55342e-02,-3.05645e-03,-2.73017e-02,2.28225e-02,1.66788e-02,4.40890e-03,-2.55111e-02,-4.97286e-02,-3.20850e-02,2.57056e-02,-5.00580e-02,-2.27381e-02,1.63971e-02,-1.39376e-04,-1.82545e-02,-2.30443e-02,-5.95683e-03,6.73119e-03,5.25481e-02,-1.29493e-03,-2.31310e-02,-6.94755e-02,2.02287e-02,-1.22650e-02,-2.07973e-02,-3.70669e-04,1.33892e-02,-1.36121e-03,1.96995e-04,-2.44626e-02,-1.55803e-02,1.92420e-02,-2.27277e-02,8.25005e-02,8.15676e-02,5.03697e-02,-6.69641e-02,-3.34236e-02,3.11726e-03,-6.28316e-02,-4.90607e-03,-6.71833e-02,-1.60538e-03,1.32569e-03,-1.19734e-02,-1.97401e-03,1.06065e-03,1.66770e-02,-6.43057e-03,-9.48778e-03,-2.57232e-02,-1.52223e-02,8.31784e-04,-4.70276e-02,1.42015e-02,9.58529e-03,1.72025e-04,1.25340e-02,-1.94818e-02,-1.77457e-03,-6.25559e-03,-3.05487e-02,-2.54599e-02,-2.00777e-02,-1.30446e-02,-4.23808e-02,-3.47498e-02,-7.33082e-03,-1.44002e-02,-5.09108e-02,1.21345e-03,9.98109e-03,1.89255e-02,1.85872e-02,-3.25449e-02,-2.14050e-02,-2.67892e-02,-8.92725e-05,-3.63979e-03,-5.38252e-03,3.07538e-03,4.73038e-03,-3.08256e-02,1.06085e-02,1.60224e-02,-7.08145e-03,-4.70382e-02,-3.26134e-02,-2.25715e-03,-1.31419e-03,4.68586e-02,1.25533e-02,1.71439e-02,1.46897e-03,2.94231e-02,-9.01622e-03,2.60699e-02,-1.12881e-02,1.82241e-03,3.52558e-02,-3.01937e-02,-3.98882e-03,-1.14246e-02,-2.78047e-02,4.24540e-03,3.28081e-02,-2.86485e-04,-4.32428e-02,-3.48791e-02,1.68405e-02,-7.21356e-03,1.48476e-02,8.42429e-02,3.84114e-02,1.74476e-02,-6.93068e-02,-2.84165e-02,-4.71043e-02,-8.86988e-02,-3.49019e-02,-1.26465e-02,7.89502e-03,5.32693e-03,-3.38952e-02,-7.11484e-02,-1.23181e-01,-3.13639e-02,4.70227e-04,-3.65358e-02,-3.18363e-02,-4.81545e-02,-7.26516e-03,-3.04386e-02,-1.35880e-02,-1.81014e-02,-4.46708e-02,-4.43176e-02,-4.20806e-02,-3.20918e-02,7.09583e-04,-3.10991e-02,-1.06504e-02,-1.56115e-02,2.16823e-02,-3.50132e-02,1.50208e-02,-4.37200e-02,-4.70616e-02,-1.86905e-03,-2.79727e-02,1.45399e-03,-3.72302e-02,1.13081e-02,2.40272e-02,-1.11811e-02,7.39353e-04,1.52770e-02,7.70093e-03,-5.02610e-02,-1.42506e-02,-5.09648e-02,8.03511e-03,-1.99120e-02,6.46933e-05,-3.54831e-02,-3.64574e-02,-8.12378e-03,1.22027e-02,-3.34251e-02,1.27656e-01,5.99854e-02,2.56929e-01,-1.70829e-02,9.67725e-03,1.36865e-01,9.58005e-02,2.99117e-02,2.47836e-02,-1.23135e-02,-2.47062e-03,-5.18427e-02,-1.05458e-01,4.18433e-02,-1.78160e-02,3.45061e-02,4.30672e-02,-6.44754e-05,-4.31238e-04,1.66621e-03,1.00953e-04,3.09554e-02,-3.92434e-02,-6.64086e-03,1.42652e-01,3.65210e-02,-2.63162e-02,-3.10447e-02,-5.06649e-03,1.04252e-02,-3.17207e-02,1.63999e-04,-2.42067e-02,2.29484e-02,3.35782e-02,-2.16905e-02,-5.43074e-02,-5.34144e-02,-2.93803e-02,1.95209e-04,9.93948e-03,-4.06898e-02,1.67098e-04,-6.00352e-03,8.83352e-03,-3.21123e-02,3.43127e-03,6.31343e-02,2.05137e-03,1.19488e-03,-9.87405e-02,-9.69740e-02,-7.34453e-05,-1.02889e-02,-7.73617e-03,-1.54892e-02,-3.21738e-02,5.08111e-02,-2.17670e-02,
-1.31150e-02,-2.12470e-02,4.47855e-03,-1.22521e-02,2.67950e-02,-3.34218e-02,-1.44071e-02,-2.59974e-02,6.40001e-03,2.69210e-03,-1.30710e-03,4.34430e-02,-1.70424e-02,-6.61161e-03,9.33573e-03,3.59083e-02,3.33313e-02,7.34543e-03,-1.39031e-02,1.50803e-02,2.80148e-02,5.94133e-04,2.37307e-02,3.48046e-02,-2.15444e-02,-7.51650e-03,-3.69785e-02,7.33648e-03,2.60584e-02,-7.14383e-03,5.13506e-03,1.08884e-02,-1.01042e-03,3.00540e-02,9.42140e-04,-3.71916e-02,-3.38825e-02,-3.53279e-02,5.94355e-03,1.93787e-02,-8.89152e-03,3.79990e-02,-3.90309e-03,1.17209e-02,4.11968e-02,2.44941e-02,1.58014e-03,4.37819e-02,-2.20753e-02,1.23194e-02,2.73593e-02,-2.26603e-02,-4.29229e-02,1.33193e-02,-1.33397e-02,-1.84836e-02,5.22511e-03,-2.73092e-02,4.13338e-02,-7.19967e-04,-1.03767e-02,3.83945e-02,1.33574e-02,1.14744e-02,-1.64213e-02,4.39967e-02,-1.70047e-02,3.94399e-02,-7.44939e-03,2.37595e-02,2.68020e-02,-2.82959e-02,-3.16599e-02,-3.96856e-02,2.81070e-02,3.87673e-02,-1.82513e-02,-2.29002e-02,7.16188e-03,1.85769e-02,5.88665e-03,-6.20111e-03,-2.52420e-02,3.68630e-02,-2.60134e-02,-3.93364e-02,-1.58513e-02,9.41599e-03,1.68355e-02,1.74010e-02,-2.26873e-02,-1.43629e-02,-1.98599e-02,-2.20513e-02,-3.69750e-02,9.43584e-03,-1.08216e-02,-3.87049e-02,-2.26970e-02,-2.42964e-02,-1.67592e-02,-2.46756e-02,-6.87392e-03,1.52520e-02,-3.36282e-02,-5.13579e-05,-1.34869e-02,-2.29860e-02,-1.15096e-02,-1.44900e-02,-7.62489e-04,-3.22502e-02,4.84937e-03,3.72290e-02,2.98296e-02,-1.55949e-02,9.85229e-03,-3.40984e-02,3.52737e-02,-4.41859e-02,-2.98209e-02,-3.67142e-02,-4.63922e-02,7.22498e-03,-9.90074e-03,1.15428e-02,-9.46303e-04,1.97833e-04,-1.35955e-02,-2.30293e-02,-3.35854e-02,2.24498e-02,-2.31190e-02,-1.05045e-02,1.87758e-02,-9.41433e-03,-8.42849e-03,-2.64229e-02,-3.38183e-02,2.17122e-02,-8.22030e-03,2.82579e-02,4.45692e-03,1.29550e-03,-3.72513e-02,3.70195e-03,-9.69399e-03,-2.65221e-02,-6.41425e-03,5.05591e-03,-3.63499e-02,6.56467e-03,2.43090e-02,6.04069e-03,3.82352e-02,1.86327e-02,-4.18284e-02,-1.32855e-02,-1.02296e-02,1.45702e-02,5.14031e-04,2.42140e-02,1.48185e-02,-2.52094e-02,-1.41108e-02,-3.37700e-02,-1.01298e-02,2.19581e-02,1.56303e-03,-3.84283e-02,-3.48717e-02,1.68770e-02,-3.85254e-02,-3.54158e-02,-2.68031e-02,4.14579e-02,-1.00727e-02,-1.56518e-02,-2.67010e-02,2.83428e-02,-5.33580e-03,9.34224e-03,9.11464e-03,1.16439e-02,2.60693e-02,-2.46971e-04,1.61524e-03,-6.08417e-03,-3.51183e-02,-5.80353e-03,3.59032e-02,-3.06084e-02,-3.15100e-02,-4.21299e-02,-3.97779e-03,-4.02751e-02,-2.45947e-02,4.01114e-02,1.17930e-02,2.81037e-02,7.88425e-03,-3.48871e-02,-1.84141e-02,-3.31970e-02,-2.35037e-02,1.50550e-02,-1.04398e-02,4.24720e-02,-3.15120e-02,-3.33735e-02,4.19320e-02,-3.88577e-02,3.82105e-02,1.20422e-02,-3.74812e-02,3.77478e-02,-1.05004e-02,-1.47913e-02,-3.19831e-02,-3.44363e-02,1.05985e-02,-4.21757e-02,1.54644e-02,-8.11860e-03,1.19632e-02,-7.61843e-03,1.54002e-02,-2.23910e-04,1.32732e-02,-1.60699e-02,-2.69908e-02,6.18955e-03,-2.54896e-02,-2.47183e-02,-4.06335e-02,-1.42224e-02,-2.63933e-02,3.38181e-02,2.94911e-02,1.07867e-02,3.55058e-02,2.13292e-02,-3.82108e-02,-2.05526e-03,-5.81805e-03,-2.41959e-02,1.32122e-02,-5.89910e-03,-2.42835e-02,4.48845e-03,-3.25304e-02,3.87452e-02,2.78904e-02,4.12191e-02,-5.95342e-03,1.52206e-02,2.67126e-04,-3.35538e-02,2.07393e-02,-2.79478e-02,-1.48239e-02,-2.21344e-02,-3.74627e-02,-1.06180e-03,7.79708e-03,-1.95053e-03,3.19094e-02,3.14952e-03,-6.63892e-03,-2.18917e-02,-2.35652e-02,-4.89703e-03,-2.36033e-02,-2.65267e-02,-4.21287e-03,-5.65922e-03,-2.38626e-02,2.71899e-02,3.85839e-02,-2.58503e-02,1.90578e-02,-1.80604e-02,-2.82184e-03,4.12114e-02,6.56857e-03,-3.84819e-02,4.03166e-02,-1.39688e-03,-2.08020e-02,-2.20655e-02,3.94125e-02,3.58617e-03,2.54747e-02,3.19747e-02,-1.60750e-02,-6.39627e-04,-2.53878e-02,3.78106e-02,-1.87191e-02,3.18194e-02,1.57567e-02,3.03565e-02,-2.81003e-02,1.32606e-04,2.37544e-02,3.28691e-04,1.53781e-03,2.25878e-02,-2.89649e-02,-5.53264e-03,2.05074e-02,2.24159e-02,4.13609e-02,-5.65627e-03,1.13236e-02,-1.87973e-02,-5.04088e-03,-1.93615e-02,3.37449e-02,2.58590e-03,1.93549e-02,2.50291e-02,1.04047e-02,7.50220e-03,-1.50141e-03,-3.34889e-02,8.72660e-03,-6.63466e-03,-3.38861e-02,4.14718e-02,-1.94615e-03,-1.90235e-02,-3.90653e-02,-3.67182e-02,1.79739e-02,-1.72995e-02,-1.56301e-02,-2.13427e-02,3.63133e-02,-8.05979e-03,2.91554e-02,3.62491e-02,-3.06437e-02,3.34834e-02,-6.87801e-03,4.15925e-02,2.27420e-02,-3.97960e-02,9.06611e-03,1.61788e-02,-1.44577e-02,3.32399e-02,-3.34574e-02,-1.20501e-02,4.18444e-02,4.26446e-02,2.34776e-02,-2.30218e-02,-3.36223e-02,-3.33898e-02,-9.09599e-03,2.57147e-02,1.51875e-02,-4.02055e-03,3.96469e-02,3.44708e-02,-1.91912e-02,-1.76830e-02,-1.17880e-04,1.56130e-02,3.37106e-03,1.99832e-02,2.80300e-02,-3.56493e-03,1.94329e-02,7.27572e-03,1.87574e-02,2.02461e-02,-8.14392e-03,-1.61949e-02,2.09288e-02,-2.53762e-02,2.36274e-02,-2.49682e-02,3.09990e-02,1.91923e-02,-8.43314e-03,2.63001e-02,-1.08954e-02,1.03057e-02,1.41469e-02,6.28803e-03,1.06058e-02,4.22783e-04,-1.05441e-02,2.55319e-02,1.87604e-02,1.80011e-02,3.08353e-02,-1.97229e-02,-8.10180e-03,1.24933e-03,3.68128e-02,-3.16038e-02,-2.20335e-02,-8.16272e-03,-3.34390e-02,-3.13953e-02,3.10112e-02,4.35618e-03,-3.19131e-02,-4.93013e-03,6.29292e-04,-1.29672e-02,-3.33979e-02,2.50847e-02,-2.15110e-03,4.30190e-02,-3.02247e-02,-2.12428e-02,-7.49641e-06,-2.75605e-02,3.27205e-02,3.38055e-02,3.91772e-02,-2.54638e-02,3.16613e-02,3.04293e-02,-1.48481e-02,6.01829e-03,2.13599e-02,3.15534e-02,-3.77422e-02,4.35718e-02,-8.27267e-03,2.01393e-02,-2.33639e-02,-2.98516e-02,-2.75062e-02,2.70701e-02,-1.91135e-02,2.67191e-02,1.41877e-02,1.80603e-02,-8.16104e-03,-1.32679e-02,-1.99821e-02,-2.35494e-02,4.22051e-02,3.90075e-04,-1.55531e-02,-3.62515e-02,1.80016e-03,-4.42934e-02,1.10404e-03,2.93345e-02,-2.06067e-02,2.68437e-02,-9.58773e-03,-2.88484e-02,-3.93730e-02,2.30368e-02,-2.99690e-02,2.26074e-02,7.92743e-03,2.50866e-02,-2.91695e-02,4.00544e-02,-3.97084e-02,-2.99851e-02,2.71634e-02,4.24064e-03,-2.13999e-02,-6.79875e-03,-3.49405e-02,-3.46767e-02,-6.59815e-03,3.40583e-02,1.45663e-02,9.69524e-03,-8.97056e-03,4.13749e-02,2.38393e-03,1.62772e-02,2.57154e-03,8.90909e-03,1.57395e-02,3.41584e-02,2.70785e-02,7.47883e-03,1.92892e-02,-1.07270e-02,3.07508e-02,1.36171e-02,3.41236e-02,-3.82934e-03,-3.19848e-02,1.00865e-02,1.90265e-02,3.65640e-02,1.86984e-02,1.74393e-02,3.40486e-02,-1.29807e-02,3.81915e-02,2.35523e-02,3.07324e-02,3.05688e-02,-3.29645e-02,2.35197e-02,3.90774e-02,-2.68623e-02,-8.74630e-03,-2.24324e-02,-6.77273e-03,6.95922e-03,2.35503e-02,-1.11200e-02,-3.86570e-02,2.44652e-02,2.43411e-02,-6.12734e-03,3.73664e-02,3.27813e-02,-6.09783e-03,-5.60588e-04,8.99305e-03,-5.93678e-03,-9.08504e-03,-1.71568e-02,-2.22845e-02,2.30604e-02,-1.06708e-02,-1.89491e-02,3.90905e-02,8.35083e-03,2.95329e-02,4.17092e-02,-6.95933e-03,1.18990e-02,4.29126e-02,-2.75890e-02,-1.10767e-02,7.24704e-03,-1.23289e-03,1.34028e-02,2.34467e-02,-1.54592e-02,4.43469e-03,3.82395e-02,-2.08399e-02,-3.27754e-02,-2.97696e-02,2.81941e-02,-3.06295e-02,-1.29092e-02,2.24187e-02,-2.21965e-02,3.77872e-02,-2.30920e-02,-1.23510e-03,
9.76598e-03,-2.19236e-03,2.08494e-02,5.60359e-02,-2.37647e-02,1.64838e-02,1.13862e-02,-6.06606e-03,-3.37954e-02,9.26254e-02,3.30236e-02,-3.85921e-02,-3.87092e-02,-3.67220e-02,1.30111e-02,-8.12869e-03,-8.15033e-03,2.47352e-02,-1.66501e-02,-3.25528e-02,7.88064e-04,-2.23026e-02,-8.84888e-02,1.77587e-02,2.60815e-02,-3.05150e-02,4.50178e-02,1.99848e-02,4.68542e-02,1.86215e-02,5.10745e-03,-1.92450e-02,-2.30555e-02,-2.11839e-02,9.57008e-03,9.39470e-03,5.22606e-03,-1.42847e-01,3.66667e-02,-9.90679e-02,-1.62366e-01,-1.70655e-01,2.55712e-02,-7.69136e-03,-2.04265e-02,-4.51530e-02,-3.82060e-02,2.86274e-02,-3.10575e-02,-9.53939e-02,-1.86842e-01,5.64224e-03,-1.69044e-01,-1.33154e-01,3.84646e-02,-2.23831e-01,-1.33367e-01,4.84891e-02,7.03253e-02,-4.60163e-02,-4.29752e-02,-4.48550e-02,4.17109e-02,-4.85219e-02,-4.16097e-02,-1.76397e-02,3.77239e-02,2.46893e-02,4.55648e-02,-1.91593e-02,3.46228e-03,1.52660e-02,2.44487e-02,4.34049e-02,-1.60532e-02,3.94445e-02,-2.50516e-02,5.69601e-02,-1.70451e-02,-4.10632e-02,-2.87203e-02,2.38726e-02,3.48753e-02,-5.33193e-04,-1.87780e-02,1.75456e-02,1.79888e-02,-1.23220e-02,2.39071e-02,1.42091e-01,1.48589e-04,1.83907e-02,2.47147e-02,-1.62521e-02,-1.91762e-03,6.66665e-03,-6.01358e-03,1.13692e-02,8.22757e-03,-4.48563e-02,-3.17219e-03,-8.64400e-03,-5.13134e-02,4.02029e-03,-1.89991e-02,-2.08767e-02,-2.48857e-02,2.87066e-02,-1.84218e-02,4.85846e-03,2.61565e-02,2.89662e-03,-1.14387e-02,-3.60305e-02,9.70080e-03,-1.50049e-02,9.18556e-03,-7.41957e-02,1.87760e-02,-1.94785e-02,-3.38288e-03,-9.65714e-03,-1.86064e-02,8.99273e-03,-2.20997e-02,1.04060e-02,-1.02917e-02,2.70612e-02,-2.63517e-02,-2.14711e-02,-1.68018e-03,-2.44854e-02,2.15246e-02,-1.01305e-02,2.15379e-02,1.79768e-02,2.18953e-02,-1.26853e-02,1.14179e-02,-1.61909e-02,-3.73992e-02,-6.70591e-03,8.49514e-02,-2.32104e-02,7.44705e-03,2.81144e-02,-1.90292e-02,-1.21941e-04,-2.51248e-02,4.28010e-02,2.32926e-02,-8.21674e-03,2.83947e-02,-3.37685e-02,-1.03768e-03,-2.00762e-02,-1.27273e-02,1.91872e-02,5.40912e-02,-1.19530e-01,8.21254e-03,-3.51936e-02,-2.85512e-02,-3.62558e-03,-3.48522e-02,2.32405e-02,-1.64901e-02,6.80111e-03,-3.60918e-02,2.40693e-02,-8.49276e-03,-2.09855e-02,2.00406e-02,7.32312e-03,-1.73303e-02,6.79316e-03,-3.68095e-02,3.09568e-02,2.69952e-02,-1.79966e-02,1.91773e-02,-4.50073e-02,5.00188e-03,-3.86050e-02,-2.89747e-02,-7.32130e-02,2.80087e-02,2.46212e-02,2.57266e-02,-1.78484e-02,2.96492e-02,6.14566e-04,2.40013e-02,2.13942e-02,2.81911e-02,-2.83721e-02,3.28336e-02,-1.83281e-03,-3.76361e-02,-4.66063e-02,2.43109e-03,3.74041e-02,-1.82829e-02,-5.35423e-03,-9.34847e-03,-1.03577e-02,-2.78584e-02,2.84120e-02,2.33631e-02,-1.00511e-01,6.03690e-03,1.00718e-02,-1.13162e-03,4.36804e-03,4.94589e-02,1.47587e-02,-1.61937e-02,-2.12564e-02,2.45006e-02,-2.43829e-02,1.53193e-02,4.89442e-02,-1.00432e-01,-1.10272e-02,4.23218e-02,-8.76321e-03,7.05198e-03,1.24840e-02,1.42768e-02,-1.74729e-02,-1.14198e-03,2.21714e-02,-4.26779e-03,-3.92291e-02,1.13343e-02,-4.01445e-03,-1.56841e-02,1.54180e-02,6.21078e-04,-2.41378e-02,-1.66977e-02,-5.15213e-03,-1.08083e-02,-1.58408e-02,-2.48048e-02,2.57403e-02,2.08223e-02,-2.74877e-03,1.77188e-02,-4.44044e-03,2.89273e-02,1.00767e-03,9.20820e-04,-2.57238e-02,1.30183e-02,-4.30032e-02,4.30134e-03,-4.04942e-02,-2.61257e-02,9.72071e-03,-1.40960e-02,3.76197e-02,-2.74281e-02,3.10853e-02,7.03470e-03,-1.05608e-02,2.05615e-02,-3.68883e-02,-4.79453e-04,-2.69837e-02,1.53483e-04,7.38056e-03,-3.54287e-02,4.28400e-02,2.22136e-02,-7.24000e-02,-2.18440e-03,-2.60851e-02,-2.44928e-03,4.03099e-03,-1.29555e-02,7.04065e-03,2.01983e-02,-2.68487e-02,-1.22935e-02,-2.95886e-03,-2.72860e-02,5.82096e-03,-1.72212e-03,-1.98714e-02,4.74663e-04,3.16485e-02,1.03106e-02,-3.26895e-02,3.83075e-02,4.80148e-02,-1.15627e-02,5.99287e-02,1.18115e-04,2.27093e-02,-2.68990e-02,-4.36576e-02,6.14084e-02,-3.50356e-02,-4.53534e-03,3.40063e-02,1.41969e-02,-4.78290e-02,-2.99141e-02,-4.54099e-02,3.75462e-02,-1.23485e-02,-4.24749e-02,-2.16827e-02,1.60443e-02,-5.90755e-03,8.98244e-03,-5.66220e-03,1.85944e-03,-1.53696e-02,6.70757e-04,-6.39224e-03,2.70663e-02,5.54370e-03,-2.59270e-02,-3.75611e-02,-4.21865e-02,-2.09951e-02,-3.18074e-03,3.41871e-02,-8.55420e-03,1.14062e-02,1.56110e-02,-4.44095e-02,-3.58066e-02,5.28134e-03,8.52973e-03,-2.87278e-02,5.01588e-03,-5.02050e-02,-4.78553e-03,-1.33421e-03,2.11848e-04,-9.28110e-03,1.78408e-02,-1.57851e-02,3.11041e-02,-3.72887e-02,-4.81035e-02,-4.09046e-02,-3.43077e-02,2.72714e-02,-9.93920e-03,-4.35620e-02,-3.31143e-02,-3.49526e-02,-7.23557e-03,1.24431e-02,-1.49704e-02,2.88393e-02,-1.08577e-05,-3.67632e-02,8.77068e-04,2.50331e-02,-9.81459e-03,-3.25282e-03,2.74917e-03,5.39943e-03,1.68377e-02,-8.95309e-02,1.88552e-02,3.15572e-02,-3.29341e-03,1.19844e-03,-2.92978e-02,-2.08312e-02,-9.94261e-03,1.88603e-03,-3.62198e-02,8.69720e-04,-2.36962e-02,3.26479e-02,-3.65290e-02,-3.62718e-04,2.14630e-02,-4.36541e-02,-9.32140e-03,1.47729e-02,6.44927e-03,-2.14884e-03,5.08023e-03,-3.21731e-02,2.52896e-02,-6.26064e-03,1.79674e-02,5.12699e-05,-1.47110e-02,4.54882e-03,3.44482e-02,3.38705e-02,-3.84322e-02,-2.23525e-03,-3.48498e-02,2.03820e-02,1.73328e-02,-3.80429e-02,-5.98191e-03,1.70495e-02,2.34838e-02,-3.25472e-02,2.54102e-02,-1.49325e-02,-4.50220e-02,2.06646e-03,1.73460e-02,2.26848e-02,-3.59464e-02,-3.38859e-02,-2.86840e-02,1.67854e-02,-4.07099e-02,-7.83430e-03,-9.90718e-03,1.72184e-02,1.04629e-02,-2.26780e-02,-1.47695e-03,2.76063e-02,5.09472e-03,-2.05463e-02,2.51918e-04,-4.58745e-02,-2.20204e-02,-4.70538e-02,-3.18929e-02,1.61746e-02,2.08913e-04,1.87954e-02,-9.60671e-03,-2.23213e-02,3.62208e-03,-1.66178e-02,-1.40068e-02,-4.62463e-02,2.49957e-02,5.35101e-02,-3.34128e-02,-1.33766e-02,-4.64070e-02,-3.85875e-02,-1.07373e-02,-1.86862e-01,2.56382e-02,2.90750e-02,3.12889e-02,2.47639e-02,-8.62935e-02,-3.51466e-02,-1.42896e-01,-1.02956e-01,-2.05701e-02,-1.21462e-02,-4.24526e-02,-4.23049e-03,-2.12476e-03,-2.66954e-02,3.21193e-03,3.12236e-02,-1.66145e-02,-2.75201e-02,-4.38642e-02,-4.42924e-02,-2.24136e-02,-3.37779e-02,-2.36904e-02,1.47026e-02,1.48761e-02,2.25648e-02,2.59996e-02,-2.38965e-02,-2.26614e-02,-2.81291e-03,-3.71829e-02,1.35266e-02,-1.51244e-02,-4.75518e-02,-3.59885e-02,-2.99823e-02,6.77893e-03,1.83794e-02,1.86938e-02,-2.00600e-02,-2.86158e-02,-3.20562e-02,-4.07676e-02,-1.81445e-02,-3.54318e-02,1.18554e-02,-4.51023e-02,-3.39581e-02,2.05545e-02,-3.78233e-02,6.98411e-02,5.39651e-02,1.23277e-01,2.14321e-02,-2.12386e-02,7.84277e-02,4.24639e-02,5.49774e-03,7.57869e-03,-5.91595e-04,3.64737e-02,7.80571e-03,7.81313e-03,4.49446e-03,1.70358e-04,2.01173e-02,2.16811e-03,-4.42297e-02,5.54563e-03,-2.16814e-02,-1.89158e-02,1.94662e-02,-2.03715e-03,1.87848e-02,1.67696e-02,3.25310e-02,3.95260e-02,9.36923e-04,1.01669e-02,-3.55121e-02,1.83319e-02,1.23788e-02,1.21576e-02,1.84264e-02,8.47377e-04,-1.54977e-02,1.73771e-02,2.80648e-02,-3.67170e-02,2.86238e-02,3.47296e-02,8.75438e-04,-4.00787e-02,6.80444e-03,-8.50451e-03,1.67111e-02,-4.05656e-02,1.39704e-02,-1.09835e-02,6.07040e-03,-3.35121e-02,-6.22111e-02,-3.18994e-02,-2.42820e-02,1.03848e-02,-9.23972e-04,1.47568e-01,-4.03426e-02,-1.59409e-02,
2.50017e-02,-3.28137e-02,2.09493e-02,3.19673e-02,3.13177e-02,3.38000e-02,-1.19475e-03,1.78476e-02,-2.18844e-02,1.05118e-01,2.17589e-02,-4.95629e-03,1.89212e-02,-7.45608e-03,2.67686e-02,1.52231e-02,3.18947e-02,-4.29117e-02,3.46971e-02,6.09179e-03,1.28499e-02,8.74893e-03,5.16444e-02,4.47656e-02,-1.49542e-02,-3.24249e-02,4.64733e-02,-4.46564e-03,-3.72438e-02,2.59031e-02,2.65133e-02,1.16852e-02,-3.73561e-03,-1.27754e-02,4.01821e-02,2.41060e-02,2.41494e-02,-1.92044e-01,-3.17346e-02,8.01177e-02,7.83221e-02,-1.17056e-03,-4.13871e-02,-4.23644e-02,-4.45709e-02,2.36090e-02,2.13997e-03,-6.14973e-03,-5.43073e-04,9.74574e-02,-3.85316e-02,-3.02395e-02,1.08105e-01,-4.73968e-02,8.88040e-04,2.16443e-01,1.04746e-01,-6.62015e-02,-1.00328e-01,-2.44588e-02,-8.62602e-05,2.07253e-05,3.00678e-01,-9.92820e-03,-2.39205e-02,-5.15061e-02,5.52202e-04,-3.42152e-02,-2.77823e-02,-1.44579e-01,1.27303e-01,-1.04951e-01,2.06065e-02,-3.69880e-02,7.71802e-02,-3.17695e-02,-3.36678e-02,-3.62468e-02,3.00680e-02,1.79818e-02,-6.10329e-03,-3.11951e-02,-5.63601e-03,-9.77600e-03,3.13304e-02,-1.85418e-02,2.26285e-02,6.30034e-03,-6.46843e-03,-8.50960e-02,3.91564e-02,-1.06039e-02,-1.18523e-02,-2.05056e-02,-3.19015e-02,-3.23892e-02,-3.06347e-02,-1.98450e-02,-7.73798e-03,4.14114e-02,-3.02717e-02,1.61327e-02,5.32137e-02,6.27976e-03,-3.08930e-02,-1.36529e-02,1.56326e-02,2.56418e-02,-6.02631e-03,-1.06519e-02,-1.63157e-02,-2.45779e-02,1.46413e-02,-3.95210e-02,-1.09275e-02,7.11564e-03,3.39475e-02,-9.66059e-02,-1.17623e-01,4.69030e-02,4.00137e-02,2.67789e-02,-1.79831e-03,3.06084e-02,1.56736e-02,-3.37462e-02,-2.26702e-02,-2.66185e-04,-2.35270e-02,-1.97788e-02,2.67730e-02,1.37020e-02,3.64518e-02,4.33827e-03,-2.17478e-02,3.06650e-02,-7.77969e-03,6.29500e-03,-2.84991e-02,7.05349e-03,-3.73940e-02,2.59659e-02,-3.79716e-02,6.28317e-03,3.54351e-02,2.50783e-02,-8.76239e-03,-3.10079e-02,-1.05953e-03,2.67996e-02,-1.05159e-02,9.93917e-03,4.20890e-02,1.64675e-02,3.51980e-02,3.30801e-03,-1.03872e-01,1.03930e-02,-8.48463e-03,-1.67015e-02,2.79987e-02,3.29925e-02,8.45992e-03,-6.37428e-04,-1.89146e-02,-4.55292e-02,7.95240e-03,-2.71711e-02,-3.78496e-02,-8.61525e-03,-9.65145e-03,2.37214e-03,-2.44351e-02,3.06910e-02,-2.97894e-02,-1.92805e-02,-1.70585e-02,3.00683e-03,1.40234e-02,3.53528e-03,4.86335e-04,-1.55509e-02,-1.67472e-02,5.52743e-03,2.37559e-02,-4.08016e-02,-2.43140e-02,3.73594e-02,2.49843e-02,-2.13553e-03,6.47014e-03,3.76989e-03,-5.02500e-03,-3.23929e-02,-7.76764e-03,-3.76677e-02,-3.03551e-02,-8.38538e-03,-2.35043e-01,3.08525e-02,8.17132e-03,1.81972e-02,-9.08823e-03,1.59402e-02,-1.39523e-02,-4.18616e-03,-1.18225e-02,-3.80931e-02,3.71391e-03,-1.29982e-01,-2.40043e-02,-2.31469e-02,2.85950e-02,-3.66922e-02,6.52976e-02,1.63874e-02,-2.31737e-02,2.63482e-02,-3.67282e-03,-4.19769e-02,-1.33477e-02,3.11782e-02,-1.31142e-01,-1.12827e-02,1.51575e-02,-1.40619e-02,7.19515e-04,-1.80709e-02,-2.85946e-02,3.54786e-02,-3.08092e-02,1.53699e-03,3.67813e-03,-2.15481e-02,3.14275e-02,-2.77913e-02,3.85538e-02,1.41821e-02,-2.75310e-03,-3.61761e-02,3.06921e-03,1.34888e-02,-2.23075e-02,-7.64965e-03,-4.79013e-02,-4.07951e-02,-7.54735e-03,4.25572e-02,1.05141e-02,2.77685e-03,-8.59254e-03,-1.17562e-02,-3.27395e-03,-2.16166e-02,1.86130e-02,2.05263e-02,-3.09955e-02,1.02248e-02,-1.95634e-02,-2.48237e-02,4.43690e-03,-8.03021e-03,-3.17203e-02,3.50721e-03,1.90126e-02,-1.05667e-02,-1.12410e-03,2.22483e-03,5.70809e-02,2.44879e-02,3.99424e-02,-5.42288e-03,-5.94680e-04,2.89103e-02,1.09545e-01,-1.58447e-02,-2.33443e-02,-4.97931e-02,2.47324e-02,2.95069e-02,-1.08335e-02,1.55129e-02,1.17346e-02,-4.11836e-02,1.60571e-02,1.64509e-02,-5.88298e-03,1.01816e-02,2.51376e-02,3.24146e-02,3.17746e-02,5.44164e-03,1.20515e-02,-3.06571e-03,3.44646e-02,-1.93142e-01,-3.10126e-02,1.01281e-01,1.17001e-02,1.25561e-02,1.88921e-02,2.07957e-02,4.89714e-02,9.77760e-03,-2.74392e-02,-1.04289e-02,-2.37247e-04,-2.63215e-03,-3.57357e-02,-8.02099e-04,3.81959e-02,-2.71513e-02,3.80901e-02,-6.97093e-04,2.49127e-02,-1.62002e-02,1.82606e-02,-1.92056e-02,-1.30866e-03,-2.83288e-02,3.58506e-02,-3.03899e-02,-2.98702e-02,-1.69282e-02,2.91099e-02,-2.12955e-02,3.39203e-02,1.30092e-02,-1.21149e-02,1.68086e-02,1.10808e-02,-2.46345e-02,-1.01510e-02,3.70755e-02,1.68279e-02,-2.31606e-02,-1.66081e-02,1.78197e-02,1.33382e-02,1.66855e-03,-3.37273e-02,-3.37808e-02,-9.47683e-03,8.53282e-03,-8.88120e-03,-3.49075e-02,-7.85736e-03,3.69236e-02,-8.16164e-02,-3.04336e-02,2.38605e-02,4.10851e-02,-4.41095e-02,-3.35419e-02,-1.10403e-01,3.92333e-02,-2.45269e-02,-4.79992e-04,2.48017e-02,-1.67332e-02,-1.46861e-02,-3.17232e-02,-4.38860e-03,3.79732e-02,1.50085e-02,3.00186e-02,6.42555e-03,4.10504e-03,-9.65060e-03,-2.56377e-02,-7.62298e-03,-9.24281e-02,-5.42811e-03,1.28641e-02,2.58689e-02,-3.90709e-03,-3.97529e-02,-3.41274e-02,-3.54058e-02,9.37018e-03,3.09164e-02,7.54767e-03,5.77295e-03,2.27553e-02,2.97814e-02,2.20357e-02,1.55569e-02,1.11400e-03,1.72003e-02,-3.17392e-02,-2.66610e-02,3.45084e-03,-1.68954e-03,-3.75421e-02,-2.73897e-02,-3.63678e-02,3.21637e-02,3.17842e-02,-2.54963e-02,2.83632e-03,-1.71597e-02,3.02180e-02,-4.45872e-02,-3.33999e-02,-2.86436e-02,2.42169e-02,-2.57256e-02,2.45888e-02,1.15472e-03,-2.53327e-02,-1.66338e-02,-2.10605e-02,1.61557e-02,-1.96326e-02,6.28004e-03,-3.55986e-03,-3.76375e-02,-2.96710e-02,-3.36892e-02,1.88560e-02,4.90300e-03,-2.76032e-03,-3.54149e-02,-4.23219e-02,-1.77180e-02,-3.39552e-02,-4.33074e-02,-5.91997e-02,-2.93131e-02,-4.85301e-02,1.07456e-02,1.59339e-02,6.98131e-03,-3.01906e-02,1.15495e-02,8.36376e-03,1.64268e-02,-7.72328e-03,2.28775e-02,-3.91494e-02,9.57218e-03,2.21142e-02,1.33844e-02,-3.42299e-02,-1.04996e-02,-1.25946e-02,2.46978e-02,-1.23357e-02,5.55074e-03,-4.64351e-02,-8.99424e-02,1.99244e-02,-3.97576e-02,-3.53961e-02,1.46872e-03,1.58745e-02,4.38221e-03,3.72173e-02,1.04239e-01,1.28672e-01,-2.19913e-02,-3.14801e-02,9.27722e-03,-4.13787e-03,-7.80606e-03,2.39577e-02,-1.91898e-02,-2.53260e-02,-3.22571e-02,-2.65120e-02,3.45770e-02,-2.31150e-02,-1.60928e-02,1.01698e-02,-4.31019e-02,-3.06923e-02,2.17365e-02,-1.41846e-02,-1.84372e-02,-4.44675e-03,-9.16829e-03,-3.35151e-04,8.79192e-03,-3.14448e-02,3.29671e-02,-4.38915e-02,1.53443e-02,-1.80921e-02,-2.26168e-02,3.29883e-02,-3.99576e-02,-2.71554e-03,1.34763e-02,3.62484e-02,-3.84900e-02,-5.09004e-04,3.03235e-02,-4.23592e-02,2.15910e-03,-3.27783e-02,3.63127e-03,-3.92332e-02,-6.95136e-03,3.64496e-02,2.33875e-02,-8.97145e-03,-1.34647e-02,-3.66726e-02,-4.71669e-02,-2.96433e-02,7.84539e-03,-3.54506e-02,5.59238e-02,-3.83823e-02,-2.48435e-02,-2.26889e-03,-3.45727e-02,1.45461e-03,-8.92475e-03,-3.50321e-02,1.12219e-03,2.73106e-02,4.65319e-03,3.74455e-02,-8.02134e-03,-1.16182e-02,-1.35620e-01,-8.76196e-02,-4.27915e-02,9.70619e-03,2.28503e-02,-3.08291e-02,1.07813e-02,-1.20408e-02,-5.74725e-03,-1.33986e-02,-1.43260e-03,-3.99535e-02,-2.99459e-02,-1.98312e-02,2.17318e-02,1.24557e-02,-3.09465e-02,-3.23918e-02,-2.19132e-02,1.12467e-02,-3.42938e-02,-1.26767e-02,-1.10684e-03,-2.00192e-02,-2.17353e-02,4.53753e-02,-1.35478e-02,5.44298e-03,2.72790e-02,1.22500e-02,2.41415e-02,-3.59677e-02,-1.04277e-01,9.74261e-03,-2.49936e-02,
-1.86744e-02,-2.49500e-02,1.93858e-02,-1.77194e-04,-3.90322e-02,2.94169e-02,3.56617e-02,7.29194e-03,3.71027e-02,3.77065e-02,2.70803e-02,3.60740e-02,2.58667e-02,3.79875e-03,-3.11095e-03,-1.29658e-04,-5.08057e-03,2.65137e-02,7.82615e-03,1.89078e-02,-1.75152e-02,-3.62709e-03,2.13807e-02,-3.98139e-03,2.27908e-03,-2.83003e-02,-1.82063e-02,-1.72858e-04,-4.34634e-04,2.47012e-02,-6.24381e-03,1.86912e-02,4.42521e-03,1.09805e-02,-2.56373e-02,-1.92769e-03,-2.35101e-02,-2.58382e-02,-1.69563e-02,6.58283e-03,-4.87537e-03,1.01903e-02,-2.11996e-04,4.24947e-02,4.88066e-02,2.52067e-02,4.12626e-02,5.52521e-03,-5.85988e-03,-1.22107e-03,3.29071e-02,-2.13598e-04,-3.99969e-02,2.00243e-02,-1.48055e-03,-1.88456e-02,1.64658e-02,5.76627e-03,-1.45736e-02,-1.53402e-02,4.69420e-02,3.51017e-02,-1.52138e-02,8.00439e-03,8.38603e-03,2.56818e-02,-4.12814e-02,6.33739e-03,5.24148e-03,2.36810e-02,-8.44899e-05,-1.34016e-02,-4.39254e-02,2.41347e-02,3.27935e-02,-7.16595e-03,-3.92369e-02,8.76161e-03,-3.95515e-02,-3.02370e-02,-3.57023e-03,5.16342e-03,4.48917e-04,4.21763e-02,-1.24880e-03,2.88228e-02,-2.80066e-03,3.04370e-02,1.60817e-02,4.20407e-02,2.00931e-02,-8.06578e-03,1.31743e-02,2.93626e-02,4.13220e-03,2.08744e-02,-1.85607e-02,2.85660e-02,-3.03025e-02,4.11816e-02,1.86830e-02,7.09308e-03,-4.68771e-02,2.76611e-02,1.54179e-02,4.11220e-02,5.98056e-03,3.10827e-04,-6.40767e-04,-7.44734e-03,5.28774e-03,-2.07833e-03,-3.57663e-03,2.45522e-03,-2.73834e-04,-3.32954e-02,-3.72417e-02,8.65041e-04,2.53473e-02,9.74792e-03,-4.81206e-02,2.41284e-03,-5.11917e-04,1.59357e-02,3.10552e-02,8.97387e-04,-2.53874e-02,2.40257e-03,-9.12136e-03,-2.39244e-02,2.55856e-02,-2.57786e-03,9.16373e-03,2.64682e-02,3.83714e-04,1.63795e-02,-9.39013e-03,2.92699e-02,5.98314e-03,3.14589e-02,4.35590e-02,-2.41788e-02,2.22405e-02,2.26431e-02,-3.42843e-02,1.87640e-02,-4.27644e-02,9.79042e-03,2.81147e-03,-3.16485e-02,5.19361e-03,-5.30829e-03,3.30640e-02,4.37814e-02,4.10146e-03,3.37571e-02,4.52125e-03,4.24391e-02,1.11142e-03,2.28643e-03,-9.34066e-04,4.32085e-03,1.45658e-03,-1.25183e-02,2.68607e-02,1.98665e-02,-1.42432e-02,-2.98547e-02,2.40453e-02,-3.33315e-02,3.10904e-04,-3.20735e-02,2.81792e-02,2.67079e-02,-3.58942e-02,-3.30998e-02,-1.82154e-02,1.83635e-02,-1.29133e-02,-4.76605e-03,-3.26774e-03,1.21635e-02,-2.69346e-02,6.18940e-03,-3.72310e-02,2.51694e-03,1.54928e-02,-1.70472e-02,2.23827e-02,2.37796e-02,-1.48498e-02,-4.47605e-04,-2.27557e-02,6.37611e-03,-2.40850e-03,2.11053e-02,-1.55266e-02,-1.37682e-02,-2.20367e-02,-3.13234e-02,4.72745e-03,-2.29575e-02,2.99229e-04,-1.09883e-02,8.93064e-03,9.58988e-03,-1.83006e-02,1.50826e-03,-1.13020e-02,-1.66573e-02,4.02099e-04,5.20364e-03,-1.85637e-02,3.06334e-02,3.65480e-02,2.74326e-04,5.83151e-03,1.18710e-02,-3.72017e-04,-1.52928e-02,4.55210e-02,1.07947e-02,-2.75357e-02,-2.93627e-02,3.27777e-02,-3.11762e-04,-1.58991e-03,3.05713e-02,1.59422e-02,1.34684e-02,3.08582e-02,2.82115e-04,4.74243e-02,-1.88413e-02,-3.28978e-02,2.02206e-04,-5.08364e-03,2.59351e-02,-1.79792e-03,3.26751e-03,-2.38322e-03,2.62224e-02,8.60217e-04,2.15070e-03,2.53066e-02,4.60159e-02,4.04180e-02,-4.51208e-02,-1.59600e-02,-5.10209e-03,-9.34079e-05,1.16136e-02,2.08711e-02,-3.66181e-04,4.11960e-03,1.06257e-02,3.84222e-02,2.35900e-02,-1.25069e-02,-1.41139e-02,1.54640e-03,-1.04081e-02,-1.22084e-02,-2.99247e-02,3.30961e-03,-1.01861e-03,-2.03537e-02,6.53618e-03,5.12013e-02,2.96774e-02,2.04157e-02,-1.70658e-02,1.84687e-02,1.81391e-02,2.31124e-02,1.55337e-03,3.98623e-03,-1.25931e-02,-4.31050e-03,1.56214e-03,-1.84600e-03,-2.88038e-02,2.00998e-02,-2.42776e-02,-2.08541e-02,1.72072e-02,-2.54997e-02,3.02805e-02,2.93844e-02,-1.98785e-02,1.88613e-03,-2.50985e-02,4.38273e-03,1.07985e-02,-2.00233e-02,8.30908e-03,1.24999e-03,-1.16997e-03,7.22409e-03,-3.09373e-02,-1.95901e-02,1.17101e-02,5.09262e-02,-1.26957e-02,3.12927e-02,1.39047e-02,-8.39957e-03,7.44414e-03,2.87574e-02,1.27170e-02,4.80649e-02,2.44724e-04,-1.83493e-02,4.67102e-02,6.22564e-04,3.59987e-02,3.26018e-02,1.41382e-02,-2.58760e-02,-3.29669e-02,2.59155e-02,1.44165e-02,2.68651e-02,-3.36193e-02,2.01493e-03,4.18771e-02,2.77189e-02,3.63642e-02,3.86086e-02,-1.53807e-03,-1.94909e-02,-1.56172e-02,2.11823e-02,-6.09929e-03,7.28211e-03,1.13775e-02,3.21464e-02,2.84185e-02,2.98042e-02,9.06159e-03,3.04079e-02,-1.16562e-02,-6.86991e-03,2.42966e-03,-1.42759e-02,3.68285e-02,-1.63231e-04,1.72936e-02,-3.46144e-04,3.41488e-03,-1.26451e-02,-7.51086e-04,-3.00994e-02,-9.73526e-03,3.57388e-02,-3.16656e-02,1.49313e-02,1.33373e-02,-3.10064e-02,8.81266e-03,2.82085e-02,3.62156e-02,1.51815e-02,3.86051e-02,4.08350e-03,2.03399e-02,1.90541e-03,-3.76075e-02,-1.16201e-02,-2.21638e-02,3.79847e-02,2.37410e-02,-9.13399e-03,1.70050e-03,1.12273e-02,-2.20388e-02,8.41569e-03,2.35478e-02,1.10464e-02,3.36207e-03,3.36833e-02,2.90034e-02,-2.59547e-02,2.91171e-02,-2.09565e-02,3.03979e-02,4.40439e-02,1.14694e-02,-4.73254e-03,-9.28761e-03,-9.94019e-03,1.32970e-03,-7.14588e-03,5.01813e-02,-6.14291e-03,2.33290e-02,-3.05596e-02,2.68567e-02,4.30444e-02,-1.99242e-02,-1.42408e-03,1.73432e-02,-3.14349e-02,-1.71240e-02,2.04377e-02,4.70635e-02,-3.00814e-03,4.32185e-03,-3.15903e-02,-2.94650e-02,4.22072e-02,4.24168e-02,-1.95826e-03,-7.43039e-03,2.97069e-03,2.60329e-02,-3.23734e-02,-1.39676e-02,-4.03444e-03,-9.31154e-03,5.22641e-03,3.66948e-02,1.69793e-02,-3.45421e-02,3.83393e-02,2.96488e-02,1.71692e-02,1.82623e-02,1.23212e-02,3.35504e-02,-3.46039e-02,-2.05871e-02,1.13116e-03,-1.07520e-03,-2.09072e-02,-3.29348e-02,-2.28531e-02,2.64942e-03,3.43217e-02,3.43775e-02,1.73511e-02,-1.81714e-02,-1.43152e-02,6.10089e-03,-3.38301e-02,-9.51711e-03,-1.50731e-03,2.72337e-02,-1.94849e-03,4.38706e-02,6.55787e-03,-2.22526e-02,3.86359e-02,3.51920e-02,-2.04633e-02,-1.31362e-02,1.75553e-02,-1.59682e-02,2.12903e-02,-1.15083e-02,-3.47544e-03,-6.31789e-03,4.36395e-02,-6.95352e-03,-1.25547e-03,3.22519e-02,-2.18687e-02,3.97588e-03,-2.33895e-02,-3.28024e-02,-1.92163e-03,8.82710e-03,4.30115e-02,-3.29671e-02,-4.70450e-03,1.90377e-02,2.16575e-02,3.46503e-02,-2.29064e-02,1.49127e-03,1.69376e-02,-2.46217e-02,2.67463e-02,-3.15021e-02,3.57477e-02,2.07641e-02,-4.20466e-03,2.37307e-02,3.91816e-02,3.87992e-02,2.90605e-02,-1.43842e-02,1.99530e-02,4.07117e-02,1.42585e-02,3.47096e-02,-1.78620e-02,3.28853e-02,6.22882e-03,-2.85360e-02,-3.51583e-03,4.52675e-02,-2.44657e-03,6.28718e-04,-2.74576e-03,-1.24208e-02,1.19096e-02,3.20666e-02,1.43175e-02,3.64354e-04,-4.78547e-03,-2.28775e-02,-1.83631e-02,8.77457e-03,-2.34041e-02,2.33569e-02,7.87148e-03,2.19673e-03,1.00949e-03,3.64191e-02,4.08578e-02,2.67756e-02,2.54365e-02,-2.29906e-02,2.45450e-02,-1.79665e-02,2.14868e-02,-2.01003e-02,1.93669e-04,3.00737e-02,2.67285e-02,4.06069e-02,1.78215e-02,1.54832e-02,1.51734e-02,3.17400e-02,1.08989e-02,1.84652e-02,-6.52447e-03,-8.34300e-03,6.43426e-04,2.23113e-02,-1.70003e-02,1.32683e-02,3.97511e-02,4.45196e-02,-2.49721e-02,1.71079e-02,2.96045e-02,-4.42866e-02,3.41465e-02,-2.58384e-02,-2.25423e-02,-9.74738e-03,-1.88522e-02,-6.59816e-03,1.89393e-02,1.26517e-02,2.30315e-02,1.65460e-02,-1.71781e-02,
1.23632e-04,2.92849e-04,1.23254e-04,2.83084e-02,-4.21928e-03,-1.81420e-04,-2.49342e-04,-3.97673e-04,-2.17298e-04,9.84231e-02,-3.37613e-04,-7.17784e-04,2.67423e-05,1.29021e-01,7.48861e-05,-3.32700e-04,6.24706e-03,-2.39480e-04,-2.62384e-02,-2.10267e-04,-1.96941e-05,-1.22301e-04,8.31944e-02,2.46374e-04,8.40365e-03,-6.11506e-05,6.13592e-03,-2.61000e-04,1.47824e-02,1.13903e-04,1.40661e-04,-7.29024e-05,9.52726e-03,6.54683e-02,-2.37351e-04,-2.35011e-04,-5.20851e-04,-1.12698e-04,-8.29067e-02,1.72836e-04,3.20421e-02,1.41227e-04,1.92641e-04,-9.79474e-05,-1.15391e-04,-2.33434e-03,-1.05162e-04,-1.73283e-04,-1.09777e-02,6.36287e-04,8.03086e-05,1.26516e-04,2.00746e-02,1.34456e-04,1.39392e-04,-9.01035e-02,2.54386e-02,-2.41253e-02,-2.32940e-02,-1.10592e-04,-4.82268e-04,-7.01070e-03,-2.12805e-02,-1.01934e-04,-5.54631e-02,2.13141e-03,-9.77865e-03,-4.33476e-05,2.22802e-04,-4.09898e-04,8.57532e-04,-1.49472e-02,1.83868e-04,3.09918e-03,-3.13895e-04,8.34852e-05,-1.51264e-04,2.36188e-03,-2.43885e-02,-9.03212e-04,6.37006e-04,-4.48841e-05,-2.28355e-02,6.83153e-02,-1.05262e-02,2.75478e-02,6.34681e-02,-4.80275e-04,2.03651e-04,3.13606e-04,-2.71206e-02,1.88183e-02,-1.20573e-01,8.36978e-02,-9.70236e-02,1.73355e-03,2.70933e-02,-2.16392e-02,-4.73946e-05,3.02595e-02,1.53861e-02,-1.69107e-04,3.34382e-02,1.01740e-02,6.45105e-04,-2.46496e-04,9.36044e-03,-2.92977e-04,-2.67696e-05,-1.51943e-04,1.22796e-04,-3.12595e-02,2.67582e-02,6.43853e-02,4.30572e-04,1.86932e-02,-7.02534e-03,4.13238e-04,4.96700e-05,-3.05707e-02,-2.42744e-04,1.21007e-04,1.29237e-05,1.27394e-01,-3.90677e-04,7.28108e-03,1.75093e-01,-1.94817e-04,2.16276e-03,1.79296e-01,-8.46872e-05,4.22394e-03,3.35526e-04,1.08333e-02,-2.74842e-04,3.21378e-02,3.16473e-02,-1.78133e-04,2.26019e-03,2.58718e-01,-3.54233e-04,2.43078e-02,-9.70885e-02,-9.85548e-02,1.23732e-01,1.22304e-04,3.71048e-06,-2.91627e-04,1.61169e-01,-4.80884e-05,2.41657e-04,-1.43829e-03,-3.38325e-06,6.59210e-05,9.34654e-05,-8.41309e-04,1.29057e-01,-2.35861e-04,2.42029e-01,-3.64905e-05,4.62598e-02,2.76107e-04,4.70261e-04,3.07189e-01,-2.17703e-04,2.13571e-05,2.57370e-01,-2.07078e-04,-1.20485e-04,2.05066e-01,5.51507e-02,6.97209e-04,3.34965e-04,2.33118e-02,3.12070e-05,-2.03685e-04,8.10370e-02,-8.24446e-03,-1.40234e-04,1.64049e-01,-1.97142e-04,-7.63740e-05,-7.84526e-05,1.40125e-02,-9.40519e-03,1.19066e-04,-4.23275e-04,2.92961e-04,-2.93473e-02,2.90060e-03,3.96853e-04,-2.35874e-06,4.24581e-02,9.49131e-05,1.63674e-04,-7.03827e-04,-2.99599e-02,-6.14967e-03,3.13996e-01,-2.11215e-02,-3.25654e-04,-6.27549e-04,-9.61620e-04,7.82417e-02,-1.55862e-04,-2.57920e-04,-3.24670e-04,-5.52888e-04,8.47389e-05,-1.33111e-02,7.61050e-04,2.86881e-04,1.34175e-04,-3.49842e-04,-6.64887e-04,-9.69855e-04,7.07215e-02,-1.42797e-02,-3.69436e-04,-3.87657e-04,-5.85110e-03,1.93867e-02,-1.45293e-02,8.22022e-04,2.42866e-04,-1.87301e-05,1.72690e-02,9.08723e-03,4.95868e-03,2.96840e-02,1.55760e-02,9.51355e-04,-5.03265e-05,-2.09531e-04,2.78387e-02,9.19386e-05,-5.33752e-04,-4.24319e-03,1.49473e-01,1.23840e-02,-6.88254e-04,4.63024e-03,-6.21566e-04,1.40909e-02,5.80266e-03,1.69743e-02,1.07587e-01,-1.07222e-01,-3.02188e-02,-6.83909e-05,-3.51141e-04,1.76778e-03,-2.66091e-04,-2.32405e-04,-1.87344e-04,5.74157e-03,-1.17454e-03,-3.03992e-04,-5.87341e-03,-9.50506e-05,2.19225e-02,2.12893e-04,-1.09844e-02,2.29744e-01,-1.03570e-02,2.14647e-04,-5.91613e-04,5.52091e-03,7.29677e-02,-3.83438e-02,-5.78613e-04,1.49965e-04,-6.83918e-04,-3.69804e-04,1.72707e-01,-8.81372e-02,-4.32446e-04,6.01415e-05,-3.40506e-02,-3.25755e-03,2.91581e-05,-1.25866e-04,-4.00780e-03,-1.49326e-04,-4.24807e-04,-9.08623e-04,4.67458e-05,4.69532e-03,8.98626e-05,3.54120e-02,-2.21806e-03,-1.80935e-03,-3.28573e-03,1.99276e-03,3.36449e-04,1.33656e-01,1.93154e-01,1.11911e-01,-1.22620e-02,-1.02420e-02,-4.86238e-02,-3.78977e-02,-5.58208e-03,-3.77007e-03,1.14686e-02,3.28731e-03,-1.49250e-03,-1.15474e-02,5.57355e-03,-3.35065e-04,1.10663e-02,4.06296e-02,3.31934e-06,-1.36367e-02,-1.71784e-04,3.69858e-02,-1.00243e-02,-9.80495e-03,-5.08983e-02,-8.32449e-03,1.23340e-02,-3.20152e-04,-1.59284e-02,-1.57821e-03,-1.64294e-03,-7.12550e-02,-1.43731e-04,-1.90481e-04,-2.15540e-03,-7.54301e-05,-2.09843e-04,-6.03751e-02,5.74004e-03,1.56993e-03,4.03128e-03,9.98647e-03,-8.30009e-05,-2.56617e-02,-1.03910e-03,-1.47383e-04,1.79497e-02,-2.40725e-03,-3.21146e-03,4.58515e-03,3.47897e-02,-7.44247e-04,8.02373e-02,6.83722e-02,-3.13344e-02,-9.05510e-05,7.44312e-02,-1.18704e-03,2.48041e-04,3.62552e-02,-2.78456e-03,-1.03624e-04,-2.77918e-02,-1.43705e-03,-3.35818e-04,5.71329e-02,3.44681e-02,-1.34123e-02,2.27773e-02,2.57268e-04,-4.55887e-04,1.58182e-02,4.31291e-03,9.41725e-03,3.18799e-02,-4.54102e-02,-1.64020e-02,1.08544e-01,-1.27837e-06,-4.77194e-05,1.51884e-01,5.76026e-02,-1.34481e-03,-4.56034e-04,1.57802e-02,-1.29622e-04,-2.44468e-02,1.09429e-03,3.52107e-02,7.60870e-03,4.45804e-02,1.17777e-04,-1.55460e-02,-3.09004e-02,-6.84379e-04,4.38652e-03,6.69649e-02,8.14073e-05,-2.07108e-02,2.35848e-02,3.02138e-02,-1.86251e-04,1.29071e-03,-6.12409e-02,-3.38269e-02,-1.72722e-04,-6.12535e-04,-9.86972e-04,-4.01237e-02,-2.30900e-03,-9.57846e-02,-3.69213e-03,-2.00709e-02,-3.75458e-02,-1.30681e-04,1.41505e-02,-7.72970e-02,-1.46089e-04,1.01166e-05,-5.32604e-03,1.22015e-02,4.21797e-03,-4.61193e-04,-4.33090e-02,1.25397e-02,8.59318e-03,1.55931e-02,-1.29180e-02,1.02263e-03,2.50445e-01,2.07461e-05,7.63467e-04,8.69916e-02,-1.39392e-03,5.79512e-03,2.30358e-01,-3.09343e-04,1.70187e-04,6.24776e-03,-6.60426e-02,-2.99136e-05,4.80880e-03,-3.86322e-04,1.78833e-03,7.47772e-02,2.88386e-02,-6.15351e-03,5.40621e-04,4.73400e-02,1.89749e-04,-5.49677e-05,2.24069e-02,6.91395e-05,1.86927e-02,-3.86397e-05,-1.22142e-03,-7.87182e-03,1.49734e-04,-3.25169e-05,1.48216e-05,-2.51817e-04,-6.52166e-02,-4.89581e-02,-3.83433e-02,-1.30242e-02,5.27184e-03,3.65812e-02,9.04863e-02,-5.09533e-04,2.40032e-02,4.98683e-02,7.89525e-02,4.82521e-02,4.42940e-02,-1.06939e-04,6.24401e-02,1.22544e-01,8.65154e-02,2.47764e-02,3.87100e-02,4.01896e-06,-1.64706e-02,-7.13911e-04,-5.01812e-05,-6.81079e-05,3.90558e-05,-1.61206e-02,-1.77553e-04,-1.83346e-04,-6.40985e-05,-7.23305e-03,-2.55284e-04,-2.28184e-04,-1.28521e-05,1.58865e-04,-6.11106e-03,-3.17359e-02,1.20846e-02,-1.05349e-04,9.20815e-03,7.04022e-03,-6.95289e-03,7.82472e-03,-5.90859e-04,-7.76772e-03,4.16299e-04,-1.11625e-04,2.68866e-04,-1.69209e-04,-5.35507e-04,-7.37669e-04,-3.19494e-04,-1.60644e-02,-1.17716e-04,-2.60762e-02,-3.42727e-04,1.69715e-02,3.94513e-02,4.71996e-02,-8.00020e-03,-3.00043e-04,1.76456e-02,-1.33895e-04,1.48563e-04,-2.80772e-04,-2.70684e-04,1.23742e-02,1.24919e-04,3.55119e-04,1.72674e-04,-2.55331e-04,1.18541e-04,-2.23348e-02,-3.73615e-02,-3.51132e-04,2.26693e-02,-7.00095e-04,4.20503e-03,-1.36625e-03,-3.88974e-04,-9.17676e-04,-5.47441e-04,1.94856e-02,5.57096e-02,-3.91216e-03,2.91670e-02,-8.28479e-05,1.90797e-04,-3.76090e-04,-3.34099e-04,1.48377e-02,-6.16264e-05,1.41071e-04,-7.61301e-03,2.13574e-05,2.25694e-02,-1.25593e-03,4.20877e-03,5.61016e-04,-6.34869e-03,-6.29434e-04,-2.74533e-02,1.21194e-03,-8.69862e-02,-1.02580e-02,1.58241e-04,-1.65898e-04,
4.12674e-03,-1.81742e-02,-2.20126e-02,-1.65046e-02,-1.96302e-02,-4.24991e-03,1.74581e-03,-1.97743e-02,1.03887e-02,-6.54152e-02,3.44081e-02,-2.36521e-02,2.15246e-02,-2.73299e-02,-2.85299e-02,-1.06215e-02,-3.14632e-02,-1.46434e-02,-2.22668e-02,-1.59130e-02,-4.08169e-02,3.53993e-02,7.71225e-02,-9.04664e-03,1.91816e-02,-1.53933e-02,-2.07185e-02,5.37121e-03,-5.83383e-02,2.49126e-02,2.09386e-03,-2.46529e-02,2.30831e-02,-2.33787e-04,1.74824e-02,-3.40220e-04,-2.72963e-02,-4.81845e-02,-2.02198e-02,7.56248e-02,1.33786e-01,1.20458e-01,-3.53141e-02,-8.38032e-03,-4.01170e-02,-3.39585e-02,-1.46207e-02,-1.32204e-02,1.93115e-02,1.28391e-01,2.09487e-01,-1.74937e-05,1.16627e-01,1.18257e-01,-2.72424e-02,1.50611e-01,9.76869e-02,-6.03614e-02,-8.91688e-02,-2.33577e-02,8.96391e-03,-2.83639e-02,1.36325e-01,4.28321e-02,1.90726e-04,-3.72066e-02,3.13859e-02,-4.11378e-02,-2.72682e-02,-3.73052e-02,5.89894e-02,-3.66704e-02,6.59697e-02,-5.42486e-02,3.86715e-02,-2.17926e-02,1.78523e-02,-6.27707e-02,5.04794e-02,4.77384e-02,3.50717e-03,4.95136e-03,1.23436e-04,-1.87994e-02,-3.53236e-02,-1.61278e-02,-4.42886e-02,-1.65980e-02,2.06625e-02,-6.02606e-02,-4.10025e-02,-4.23917e-02,-1.12660e-02,-5.85725e-03,1.12895e-02,2.32151e-02,2.60502e-02,7.26188e-03,-4.87523e-04,1.10286e-03,9.25445e-03,1.32432e-02,-2.29570e-02,-4.94267e-02,2.14971e-02,-4.95212e-02,2.41965e-02,3.63575e-02,2.47155e-02,3.78958e-03,6.62600e-03,2.72317e-02,2.32750e-02,-1.28529e-03,-2.25904e-02,2.04308e-02,4.47690e-03,-3.12221e-02,-1.07576e-01,3.75294e-02,-2.57252e-02,-2.01263e-03,2.99823e-02,-2.30218e-03,2.79060e-02,2.14740e-02,-3.52077e-02,3.23678e-02,1.81398e-04,2.45682e-02,-1.97373e-03,-9.19467e-03,3.95344e-02,-2.16964e-02,1.60974e-03,-1.64841e-03,-1.21767e-02,-1.48577e-02,2.59798e-02,-1.57222e-02,3.86901e-03,1.23340e-02,-7.61608e-02,1.18833e-02,-3.99471e-02,-2.90286e-02,-2.50353e-02,-3.17209e-02,-3.97044e-02,-4.41677e-02,3.81960e-02,-2.27982e-02,2.24327e-02,-1.49862e-02,3.54750e-02,1.73726e-02,-1.41553e-02,4.94567e-02,-3.38412e-02,7.73914e-02,-1.51120e-02,-5.40702e-04,2.74639e-02,2.64730e-02,5.00576e-03,-1.31119e-02,-7.94724e-03,3.67162e-02,-4.41464e-02,-3.50399e-02,1.78893e-02,2.52505e-02,1.99764e-02,4.21574e-03,6.24219e-03,4.07993e-04,-2.64711e-02,3.59732e-02,3.49460e-02,3.47574e-03,2.01439e-02,-1.99010e-02,-5.13781e-02,6.53038e-03,5.97418e-03,7.71342e-02,9.79274e-04,-5.51167e-04,-2.16323e-02,1.15987e-02,4.06136e-02,3.02471e-03,-2.75632e-02,-1.53854e-02,4.40612e-03,3.63565e-02,-5.55902e-04,-1.22261e-03,-1.60273e-01,5.49841e-04,-1.81122e-02,-3.55066e-02,-2.79161e-02,2.89609e-02,2.22003e-02,-1.93522e-02,-1.64420e-02,5.68923e-03,1.79910e-02,-5.37707e-02,2.68168e-02,3.95344e-03,1.73544e-02,-1.98333e-02,-4.59289e-02,1.85025e-02,-8.29476e-03,-2.93448e-02,3.41796e-02,-1.20357e-02,-2.76042e-02,-4.72323e-03,-5.38772e-02,-4.34515e-03,-3.40136e-02,3.48552e-02,3.00914e-02,-4.26294e-02,1.89728e-02,8.74269e-03,-1.77509e-02,-1.43819e-02,-4.24055e-03,3.67695e-03,3.33222e-02,3.54637e-02,9.53852e-03,3.09017e-02,-2.05715e-02,-3.78931e-03,-3.71296e-02,1.68586e-02,4.42091e-03,-2.60187e-02,-3.82693e-02,-1.52725e-02,-1.97434e-02,-1.11810e-02,-3.61002e-02,-2.25800e-02,3.54764e-02,-1.20090e-02,1.19736e-02,1.39935e-05,-1.31226e-02,7.23038e-03,2.36999e-02,9.25220e-03,-1.81633e-04,2.93410e-02,-4.90048e-04,1.47808e-02,2.84990e-02,-3.14074e-02,2.46804e-02,-3.12717e-02,-1.29029e-03,-2.76475e-02,3.55068e-02,-3.44755e-02,-1.44497e-02,-1.69093e-03,-1.91261e-02,-4.85019e-03,5.51886e-02,8.90150e-04,-2.33814e-02,-3.79111e-02,3.09055e-02,1.77041e-04,-3.05993e-02,-4.39673e-02,2.90180e-02,2.91399e-02,-3.14933e-02,3.44718e-03,-1.67170e-02,1.82216e-02,-1.29767e-02,2.11285e-02,2.72976e-02,1.52443e-02,-1.21050e-02,1.45927e-02,9.86644e-03,-1.87074e-01,-1.05484e-02,-2.41249e-02,5.62796e-02,-3.94842e-03,8.01921e-02,1.32770e-02,-2.99902e-02,1.00033e-02,-8.41317e-03,-3.98964e-02,-6.26489e-03,-2.21750e-02,-3.50427e-02,-3.26045e-02,4.92605e-03,2.25148e-04,-2.16420e-02,3.65184e-04,-1.58968e-02,-3.25156e-02,5.46339e-02,-2.06988e-02,-1.21707e-02,1.50884e-02,1.99963e-02,-4.59379e-02,2.92983e-02,2.90169e-02,-3.44781e-02,-4.83936e-02,-4.16039e-02,-2.17676e-02,-3.90397e-03,1.55995e-03,1.11328e-03,-1.45533e-03,-3.94004e-02,3.49939e-02,2.30349e-02,1.33342e-02,5.93633e-04,-2.87807e-02,-6.72337e-03,-3.00519e-02,2.60757e-02,-4.09771e-02,2.69064e-02,2.35838e-02,-2.89563e-02,-3.92111e-02,1.05814e-02,-3.81409e-02,-5.51784e-02,-2.55140e-02,2.13740e-02,-3.10011e-02,-2.42334e-02,-1.62101e-02,-2.69864e-04,8.67132e-03,1.42478e-02,-1.52148e-02,-3.41984e-02,6.42041e-03,1.25076e-02,2.52708e-02,-4.73082e-02,-3.38667e-02,2.14466e-02,9.60506e-03,2.61552e-02,-1.41738e-02,2.71677e-02,-4.81373e-03,-1.94236e-02,-7.78125e-02,2.32623e-02,-7.23500e-03,-3.60081e-02,-2.16341e-02,4.06075e-04,7.73035e-03,3.59390e-02,-2.65661e-02,-2.44676e-02,-4.04366e-02,-4.04832e-02,3.49467e-02,-2.47469e-02,-2.47869e-02,2.18709e-02,1.82414e-02,-4.86343e-02,-1.03288e-02,9.10258e-03,-5.35826e-03,-3.33846e-02,-3.66738e-02,-3.23573e-02,8.85878e-03,-1.85579e-02,-3.51074e-02,2.79017e-02,7.61968e-03,-2.27579e-02,-4.58797e-03,-2.69532e-02,-3.38914e-02,-3.52615e-02,2.26941e-02,-4.82708e-02,-2.80572e-02,2.17910e-02,-3.98144e-02,-2.51041e-02,-5.54436e-03,-4.61178e-02,-4.57095e-02,-4.61983e-02,-1.61660e-02,-2.45278e-02,1.99998e-02,1.17179e-02,3.23253e-02,-4.32354e-02,-2.46036e-02,1.21278e-02,7.23099e-03,-3.12716e-02,2.67253e-02,-2.35901e-02,3.33404e-02,-3.57633e-02,1.21700e-02,-8.00901e-03,-3.46836e-02,4.90824e-03,7.64963e-03,-5.61182e-03,-9.84002e-03,-1.60719e-02,-1.49504e-02,1.52680e-02,-2.04491e-03,2.06177e-02,5.72360e-03,-3.88000e-03,1.75544e-02,-1.44269e-02,-4.56521e-02,-2.57006e-02,-2.55255e-02,-4.03943e-02,-1.34316e-02,-4.61646e-02,1.64406e-01,-4.86879e-03,9.23462e-03,6.84698e-03,-1.71362e-02,2.91127e-02,4.87141e-02,5.57041e-02,1.28055e-01,1.60586e-02,1.86809e-02,-7.63253e-03,-1.35974e-02,5.82131e-03,-1.32930e-03,-8.89275e-03,1.94230e-02,2.85962e-02,-3.49389e-02,2.47461e-02,-1.48180e-02,-5.87922e-03,2.29479e-02,-2.86595e-02,9.39876e-03,-1.98388e-02,-2.32225e-02,-3.17196e-03,2.70389e-02,1.14819e-02,-3.23445e-02,2.48459e-02,2.62583e-03,2.29457e-02,3.53046e-02,-1.21783e-02,1.73423e-02,-1.34925e-02,-2.68602e-03,-4.30924e-03,-9.95222e-03,-2.02235e-02,-3.99127e-02,-3.98032e-03,2.52815e-02,-1.87478e-03,-4.27196e-02,-4.63243e-03,-1.83309e-02,6.69942e-03,-4.70556e-02,-4.18561e-02,-2.30430e-02,-4.26571e-02,1.81249e-02,2.13534e-02,-4.86048e-02,2.40320e-03,-2.44895e-02,-2.50072e-02,8.25036e-03,-2.25535e-03,-3.31130e-02,1.99450e-02,3.71674e-02,1.43598e-02,-1.08027e-02,-3.61246e-02,2.61454e-02,-2.57337e-02,-4.92626e-03,-4.37112e-02,2.15642e-02,-6.89315e-03,3.05488e-02,-1.06982e-01,-9.65864e-02,2.66505e-02,-3.26714e-02,-1.91257e-02,1.13029e-02,-2.90054e-02,7.17567e-03,-9.85434e-04,-4.83754e-03,-2.32527e-02,1.95880e-02,-2.07199e-02,2.37273e-03,-5.59284e-03,-1.93970e-02,-1.72216e-02,2.43713e-02,-4.00755e-02,-2.69641e-02,-4.57157e-02,-2.23099e-02,-3.70084e-03,-1.03402e-02,3.96736e-03,3.14613e-02,3.38075e-02,6.83623e-02,1.73721e-03,4.09416e-02,-1.32642e-02,6.28742e-04,-1.03290e-01,-3.76600e-03,4.68273e-02,
5.20294e-02,-2.20369e-02,-1.92992e-02,1.38537e-01,5.79708e-02,-2.79490e-03,4.58566e-03,2.86031e-02,1.26121e-04,2.70283e-01,-2.31459e-02,3.37000e-04,6.08074e-03,-6.79225e-02,-1.55721e-04,2.66277e-02,3.18639e-02,1.60839e-02,-1.05200e-02,-1.03676e-02,-1.41863e-02,-6.07983e-03,7.58270e-02,6.15323e-02,1.51988e-02,-8.72534e-02,2.38301e-02,-1.29495e-02,6.02720e-02,1.29441e-02,3.93565e-02,1.45875e-03,8.33796e-03,-2.52599e-02,4.70764e-02,2.28567e-02,9.60706e-03,-3.26639e-01,3.62767e-03,-3.05946e-02,2.78071e-02,-9.14010e-02,-1.38279e-02,-1.32200e-02,-5.76527e-02,-4.65574e-02,-3.45041e-02,-3.37029e-02,-7.54819e-02,6.58214e-02,-1.45501e-01,-4.61172e-02,6.73062e-02,-4.57677e-02,-3.11264e-02,3.43421e-02,4.34144e-02,-4.00515e-02,-6.23545e-02,-2.42737e-02,-1.51230e-02,-6.88216e-04,2.99226e-01,-7.86431e-02,-1.12144e-02,-6.39110e-02,4.87194e-02,-4.90124e-02,7.21616e-02,-1.34578e-01,1.44431e-01,-2.01485e-02,2.28731e-02,-1.10537e-02,1.52399e-02,9.94810e-03,-2.09119e-03,-4.69476e-03,-4.48684e-02,-3.54630e-02,2.76060e-02,-2.55914e-02,-1.04762e-02,4.73293e-02,2.34581e-02,-3.76154e-03,1.22841e-03,4.16335e-02,-2.65571e-02,7.69143e-02,9.62636e-03,2.86495e-03,-4.24962e-02,1.30077e-02,3.38321e-02,-5.80006e-03,1.76186e-02,-4.02157e-02,1.08796e-02,2.78006e-02,2.78445e-02,-2.60082e-02,1.09722e-01,7.99425e-02,5.60449e-02,-4.55151e-02,3.39929e-02,2.24493e-02,1.28002e-04,-4.60641e-02,-1.67558e-02,-1.13918e-02,-1.96057e-02,-4.75020e-02,-2.44042e-04,1.38795e-03,1.31892e-02,-8.99833e-02,-4.07683e-02,-4.39267e-02,-9.61006e-03,-1.90606e-02,1.07355e-03,-2.24250e-02,1.05609e-02,2.62518e-03,-1.49345e-02,1.62585e-03,2.93224e-02,-1.26043e-02,-3.73290e-02,3.35284e-02,-7.49029e-03,6.78857e-03,3.29967e-02,6.44281e-02,-3.81929e-02,2.91192e-02,-2.03398e-02,3.60916e-02,4.46733e-02,1.86686e-02,5.09472e-02,-8.40178e-04,8.70613e-02,-2.01264e-02,3.76486e-03,-6.05802e-03,-4.64948e-03,-3.34221e-02,-2.40851e-02,9.90844e-03,2.18916e-02,-2.39243e-02,6.44631e-02,6.03201e-05,-8.67651e-02,-7.60343e-02,-6.70797e-02,1.48672e-02,2.87354e-02,-2.49748e-02,2.46229e-03,4.56860e-04,-2.26848e-02,-3.43527e-02,8.13105e-03,1.72001e-02,-1.91119e-03,1.14507e-02,1.07302e-02,-3.15926e-02,-2.99193e-02,2.68354e-03,-3.79594e-05,-1.61676e-02,3.62520e-03,-3.96793e-02,3.46721e-02,-7.16641e-03,-2.79177e-02,-6.14353e-03,3.05057e-02,1.31823e-02,7.28033e-02,-6.12129e-02,3.48612e-03,1.60377e-02,2.99183e-02,-3.29814e-03,-7.18846e-03,8.24068e-03,5.06325e-03,-5.44300e-02,1.55900e-02,-8.04307e-03,3.24553e-02,-5.94015e-03,-2.44461e-01,-4.50562e-03,5.07652e-02,8.28602e-02,-4.63567e-02,-3.12200e-02,-1.13150e-02,4.06023e-02,-4.30423e-02,-8.53093e-03,3.55827e-02,-9.18614e-02,-1.94325e-03,-9.33861e-04,1.80184e-03,4.71576e-02,3.97525e-02,-3.55673e-02,2.27806e-02,-3.86683e-02,2.52069e-02,-3.92797e-03,-4.71911e-02,6.34357e-02,-9.47729e-02,-2.87142e-02,-5.37315e-03,1.49187e-02,2.81568e-02,-1.68591e-03,4.27727e-02,6.06371e-02,2.63818e-02,3.95286e-03,2.21677e-02,-4.44766e-04,3.76356e-02,2.04981e-02,-1.38142e-02,2.46050e-02,3.09978e-02,1.45708e-02,2.75753e-02,-5.59356e-03,-1.04641e-02,5.62478e-03,5.71928e-02,-2.96433e-02,3.79366e-02,7.33256e-02,-1.47640e-02,9.80647e-03,1.95291e-03,1.50957e-02,-1.34480e-03,9.94301e-03,3.87012e-03,2.75634e-02,5.45433e-03,2.67161e-02,-1.09714e-04,1.33215e-03,4.49576e-02,-1.62123e-03,-2.90857e-02,2.50129e-02,-1.79610e-02,5.79729e-02,5.33012e-02,3.36139e-02,1.06596e-01,3.12981e-02,-2.87702e-02,8.70006e-03,7.25712e-02,5.73479e-03,1.71394e-01,1.74747e-03,-6.58512e-03,-1.55152e-02,1.45024e-02,2.57222e-02,5.41450e-02,-2.27266e-02,1.24116e-02,-9.64301e-03,-9.07817e-03,3.20393e-02,-5.06265e-03,7.89192e-02,1.07153e-01,8.29990e-02,6.00202e-03,-2.26819e-03,-1.28526e-02,-3.67839e-02,-2.45542e-02,-7.46010e-02,6.28806e-02,9.46678e-02,-9.35153e-02,-2.62671e-02,-5.26185e-02,-7.55405e-03,3.35013e-02,-7.13973e-03,1.38834e-02,1.62235e-02,-2.44036e-03,-4.21689e-02,2.56075e-02,1.46006e-03,4.12405e-02,1.69034e-02,1.26845e-02,-1.73225e-02,3.60241e-02,2.16430e-02,4.60051e-02,-3.45370e-02,1.85263e-02,-2.72141e-02,3.15185e-02,-2.67187e-02,-1.05399e-02,-2.83433e-02,-2.97464e-02,-9.75956e-03,2.08135e-02,8.07925e-04,-9.58671e-03,-3.53232e-02,-3.60131e-02,2.10662e-02,-2.31058e-02,-4.41602e-02,-3.21562e-02,-2.20886e-02,-2.91382e-02,7.24767e-03,-1.41742e-02,3.00267e-02,-4.97744e-02,-3.10950e-02,4.06505e-03,1.23253e-02,3.49067e-03,4.73167e-02,-2.01394e-02,-1.17154e-03,-2.31963e-03,-5.37405e-03,5.11949e-03,3.28149e-02,2.56687e-02,1.86119e-02,-1.06932e-01,-6.83206e-03,-2.85158e-02,1.87540e-02,-7.60350e-03,1.13820e-02,-5.63890e-03,8.28047e-03,-5.65094e-03,2.05888e-02,-3.08927e-02,-3.28982e-03,7.13067e-02,7.58772e-02,4.17270e-02,-8.43401e-02,-3.44543e-02,-7.47333e-02,-7.77820e-02,-4.15003e-02,-2.71040e-02,5.20233e-04,-2.77260e-02,5.87449e-03,6.76361e-03,-2.51516e-02,1.11807e-02,7.20848e-03,2.23284e-02,-4.39033e-03,2.87844e-02,-4.23373e-02,3.28851e-03,-4.48483e-02,2.92681e-03,-1.71834e-02,-1.17941e-02,2.60655e-02,2.78898e-02,-1.22408e-02,-2.06485e-02,1.11128e-02,-2.37213e-02,-1.78719e-02,-3.83896e-02,3.36937e-02,-5.36006e-03,-1.22251e-04,-3.47655e-02,1.63148e-02,-3.75653e-02,-1.45947e-02,-1.12392e-02,1.83103e-02,-1.28516e-02,-2.15205e-03,2.32549e-02,2.26283e-03,2.13433e-02,-2.32585e-02,1.57019e-02,-1.17276e-02,-1.35399e-02,2.61045e-03,2.68063e-02,-9.41157e-03,-8.71737e-03,-2.06962e-02,-3.68052e-02,3.56998e-02,-6.24919e-03,-2.78989e-03,9.78685e-03,-3.31616e-03,-3.29891e-03,4.72436e-02,2.22925e-02,2.17978e-02,-5.01925e-03,-1.72421e-02,2.64102e-02,3.51776e-04,-4.51232e-02,-1.22265e-02,2.06960e-02,2.44107e-05,2.83736e-02,-8.15741e-03,-4.69492e-03,2.15476e-02,-9.76643e-04,5.79758e-02,1.30734e-02,3.15998e-02,-5.39987e-02,-4.65905e-02,-1.37915e-01,-2.47838e-02,-1.76646e-02,-3.75070e-02,1.40139e-02,-1.79863e-02,1.82641e-03,1.41908e-02,-1.16760e-02,6.96942e-02,1.09694e-02,-1.77593e-02,1.65717e-04,2.73295e-02,-2.74487e-02,2.24353e-03,2.08387e-02,-1.53219e-02,2.59062e-02,-1.69202e-02,-1.89189e-02,-2.14503e-03,-8.07827e-03,-2.15239e-02,-1.87133e-02,-3.15317e-03,-3.20995e-02,-4.25846e-02,-4.42498e-02,2.86511e-02,-8.99356e-03,4.04782e-03,-4.43440e-02,-1.52340e-02,-4.48812e-02,-1.40230e-02,2.99817e-02,1.68616e-02,-1.66183e-02,-3.45531e-02,-4.03419e-02,-3.17793e-02,-1.73936e-03,-3.48132e-02,7.54144e-03,-2.61063e-02,3.38398e-02,-1.78880e-02,-1.89347e-02,1.04011e-02,1.58636e-02,1.79582e-02,5.68365e-02,6.49780e-03,1.16501e-01,-4.63461e-02,-1.24217e-03,5.77319e-02,7.13082e-04,2.21127e-02,6.47612e-02,1.36372e-02,4.02077e-02,-7.13907e-02,-8.41564e-02,2.68863e-02,2.58287e-02,-2.82578e-03,3.76756e-02,-2.97622e-02,5.09507e-02,2.55997e-02,1.72823e-02,9.93779e-02,-1.02522e-02,2.76421e-02,-1.03815e-01,-6.77142e-02,-2.86731e-02,-6.93725e-03,1.04731e-02,-1.31176e-02,-1.32157e-02,1.83440e-02,3.01367e-02,1.03919e-02,5.44355e-02,6.08659e-03,-4.41370e-02,-5.46672e-02,-6.68767e-02,-3.37892e-02,-4.10331e-02,1.85980e-02,-4.99643e-03,-3.15069e-02,-1.56024e-03,-5.78277e-03,-2.96131e-02,2.58456e-03,2.32124e-05,2.97729e-02,-7.26906e-02,-5.99221e-02,-5.65921e-03,2.94942e-02,-2.07279e-02,-1.59756e-02,-6.45152e-02,1.06018e-01,3.22274e-02,
